{"learner":{"attributes":{"best_iteration":"149","best_ntree_limit":"150","scikit_learn":"{\"n_estimators\": 150, \"objective\": \"reg:squarederror\", \"max_depth\": null, \"max_leaves\": null, \"max_bin\": null, \"grow_policy\": null, \"learning_rate\": null, \"verbosity\": null, \"booster\": null, \"tree_method\": null, \"gamma\": null, \"min_child_weight\": null, \"max_delta_step\": null, \"subsample\": null, \"sampling_method\": null, \"colsample_bytree\": null, \"colsample_bylevel\": null, \"colsample_bynode\": null, \"reg_alpha\": null, \"reg_lambda\": null, \"scale_pos_weight\": null, \"base_score\": null, \"missing\": NaN, \"num_parallel_tree\": null, \"random_state\": 42, \"n_jobs\": null, \"monotone_constraints\": null, \"interaction_constraints\": null, \"importance_type\": null, \"gpu_id\": null, \"validate_parameters\": null, \"predictor\": null, \"enable_categorical\": false, \"feature_types\": null, \"max_cat_to_onehot\": null, \"max_cat_threshold\": null, \"eval_metric\": null, \"early_stopping_rounds\": null, \"callbacks\": null, \"_estimator_type\": \"regressor\"}"},"feature_names":[],"feature_types":[],"gradient_booster":{"model":{"gbtree_model_param":{"num_parallel_tree":"1","num_trees":"150","size_leaf_vector":"0"},"tree_info":[0,0,0,0,0,0,0,0,0,0,0,0,0,0,0,0,0,0,0,0,0,0,0,0,0,0,0,0,0,0,0,0,0,0,0,0,0,0,0,0,0,0,0,0,0,0,0,0,0,0,0,0,0,0,0,0,0,0,0,0,0,0,0,0,0,0,0,0,0,0,0,0,0,0,0,0,0,0,0,0,0,0,0,0,0,0,0,0,0,0,0,0,0,0,0,0,0,0,0,0,0,0,0,0,0,0,0,0,0,0,0,0,0,0,0,0,0,0,0,0,0,0,0,0,0,0,0,0,0,0,0,0,0,0,0,0,0,0,0,0,0,0,0,0,0,0,0,0,0,0],"trees":[{"base_weights":[3.494384E3,3.3778389E3,3.5760588E3],"categories":[],"categories_nodes":[],"categories_segments":[],"categories_sizes":[],"default_left":[1,0,0],"id":0,"left_children":[1,-1,-1],"loss_changes":[6.95296E5,0E0,0E0],"parents":[2147483647,0,0],"right_children":[2,-1,-1],"split_conditions":[4.5575E3,1.0133517E3,1.0728177E3],"split_indices":[7,0,0],"split_type":[0,0,0],"sum_hessian":[1.341E3,5.7E2,7.71E2],"tree_param":{"num_deleted":"0","num_feature":"82","num_nodes":"3","size_leaf_vector":"0"}},{"base_weights":[2.4476233E3,2.3897378E3,2.5534175E3],"categories":[],"categories_nodes":[],"categories_segments":[],"categories_sizes":[],"default_left":[1,0,0],"id":1,"left_children":[1,-1,-1],"loss_changes":[2.116096E6,0E0,0E0],"parents":[2147483647,0,0],"right_children":[2,-1,-1],"split_conditions":[4.796E3,7.169214E2,7.6602527E2],"split_indices":[7,0,0],"split_type":[0,0,0],"sum_hessian":[1.341E3,8.82E2,4.59E2],"tree_param":{"num_deleted":"0","num_feature":"82","num_nodes":"3","size_leaf_vector":"0"}},{"base_weights":[1.7144414E3,1.605533E3,1.7476663E3],"categories":[],"categories_nodes":[],"categories_segments":[],"categories_sizes":[],"default_left":[1,0,0],"id":2,"left_children":[1,-1,-1],"loss_changes":[2.050048E6,0E0,0E0],"parents":[2147483647,0,0],"right_children":[2,-1,-1],"split_conditions":[4.3655E3,4.816599E2,5.242999E2],"split_indices":[7,0,0],"split_type":[0,0,0],"sum_hessian":[1.341E3,3.25E2,1.016E3],"tree_param":{"num_deleted":"0","num_feature":"82","num_nodes":"3","size_leaf_vector":"0"}},{"base_weights":[1.2008584E3,1.1734799E3,1.3186575E3,1.0395249E3,1.1835515E3],"categories":[],"categories_nodes":[],"categories_segments":[],"categories_sizes":[],"default_left":[1,1,0,0,0],"id":3,"left_children":[1,3,-1,-1,-1],"loss_changes":[2.7808E6,2.5088E5,0E0,0E0,0E0],"parents":[2147483647,0,0,1,1],"right_children":[2,4,-1,-1,-1],"split_conditions":[5.048E3,4.099E3,3.9559726E2,3.1185748E2,3.5506546E2],"split_indices":[7,7,0,0,0],"split_type":[0,0,0,0,0],"sum_hessian":[1.341E3,1.097E3,2.44E2,8.4E1,1.013E3],"tree_param":{"num_deleted":"0","num_feature":"82","num_nodes":"5","size_leaf_vector":"0"}},{"base_weights":[8.413927E2,8.267621E2,9.946865E2,8.096102E2,9.283488E2,1.0020755E3,3.9219434E2,8.002293E2,9.309856E2],"categories":[],"categories_nodes":[],"categories_segments":[],"categories_sizes":[],"default_left":[1,1,1,1,0,0,0,0,0],"id":4,"left_children":[1,3,5,7,-1,-1,-1,-1,-1],"loss_changes":[2.187392E6,1.393344E6,1.05592E5,4.6304E5,0E0,0E0,0E0,0E0,0E0],"parents":[2147483647,0,0,1,1,2,2,3,3],"right_children":[2,4,6,8,-1,-1,-1,-1,-1],"split_conditions":[1.5615E3,6.8565E3,2.9675E3,4.6E2,2.7850467E2,3.0062265E2,1.176583E2,2.400688E2,2.792957E2],"split_indices":[6,5,54,47,0,0,0,0,0],"split_type":[0,0,0,0,0,0,0,0,0],"sum_hessian":[1.341E3,1.23E3,1.11E2,1.06E3,1.7E2,1.09E2,2E0,9.91E2,6.9E1],"tree_param":{"num_deleted":"0","num_feature":"82","num_nodes":"9","size_leaf_vector":"0"}},{"base_weights":[5.8988104E2,5.796171E2,7.246128E2,5.537456E2,6.1520776E2,4.5000995E2,5.5969977E2,5.086361E2,6.237845E2,4.549573E2,1.1616333E2,5.5319586E2,6.542477E2,6.2440125E2,1.6571631E2,5.536127E2,1.4071631E2,1.7254346E2,6.623835E2,2.6473047E2,5.545401E2],"categories":[],"categories_nodes":[],"categories_segments":[],"categories_sizes":[],"default_left":[1,1,0,1,1,1,1,0,1,0,0,1,1,0,0,1,0,0,0,0,0],"id":5,"left_children":[1,3,-1,5,7,9,11,-1,13,-1,-1,15,17,-1,-1,19,-1,-1,-1,-1,-1],"loss_changes":[1.435808E6,8.1216E5,0E0,2.02128E5,1.56176E5,2.1476E4,6.2976E4,0E0,3.072E4,0E0,0E0,3.4368E4,3.8554E4,0E0,0E0,2.7888E4,0E0,0E0,0E0,0E0,0E0],"parents":[2147483647,0,0,1,1,3,3,4,4,5,5,6,6,8,8,11,11,12,12,15,15],"right_children":[2,4,-1,6,8,10,12,-1,14,-1,-1,16,18,-1,-1,20,-1,-1,-1,-1,-1],"split_conditions":[5.454E3,6.7645E3,2.1738385E2,4.3965E3,4.198E3,5E0,1.584E3,1.5259084E2,1.25E1,1.364872E2,3.4849E1,1.0025E3,4.274E3,1.8732037E2,4.9714893E1,3.857E3,4.2214893E1,5.176304E1,1.9871506E2,7.941914E1,1.6636203E2],"split_indices":[7,5,0,10,7,77,6,0,78,0,0,17,7,0,0,7,0,0,0,0,0],"split_type":[0,0,0,0,0,0,0,0,0,0,0,0,0,0,0,0,0,0,0,0,0],"sum_hessian":[1.341E3,1.251E3,9E1,7.34E2,5.17E2,4.4E1,6.9E2,4.3E1,4.74E2,4.3E1,1E0,6.52E2,3.8E1,4.73E2,1E0,6.51E2,1E0,1E0,3.7E1,3E0,6.48E2],"tree_param":{"num_deleted":"0","num_feature":"82","num_nodes":"21","size_leaf_vector":"0"}},{"base_weights":[4.13898E2,4.050877E2,5.0352167E2,3.953223E2,4.7808533E2,4.2049796E2,5.449608E2,3.8950632E2,4.9554688E2,9.630701E1,4.8013907E2,4.2731104E2,6.717432E1,5.5027844E2,7.838757E1,3.914323E2,2.6611832E2,5.0993826E2,2.4676729E2,5.0920966E2,4.2170926E2,1.7844304E2,4.3529337E2,3.2499005E2,3.9490036E2,1.449882E2,3.1087155E2,2.1415193E2,5.174867E2,5.1810333E2,3.0131216E2,4.2660776E2,8.594275E1,7.357666E1,3.2822342E2,3.9523462E2,3.716443E1,1.6131853E2,2.3503174E1,3.2152338E2,9.15249E1],"categories":[],"categories_nodes":[],"categories_segments":[],"categories_sizes":[],"default_left":[1,1,1,1,1,1,1,1,1,0,1,1,0,0,0,1,1,1,0,1,1,0,0,1,1,1,1,0,0,0,0,0,0,0,0,0,0,0,0,0,0],"id":6,"left_children":[1,3,5,7,9,11,13,15,17,-1,19,21,-1,-1,-1,23,25,27,-1,29,31,-1,-1,33,35,37,39,-1,-1,-1,-1,-1,-1,-1,-1,-1,-1,-1,-1,-1,-1],"loss_changes":[8.5568E5,6.8568E5,1.69934E5,4.41168E5,6.353E4,7.4807E4,1.40466E5,1.41328E5,7.4659E4,0E0,2.1366E4,5.7595E3,0E0,0E0,0E0,1.05552E5,5.792575E4,5.281E3,0E0,6.598E3,4.8864E4,0E0,0E0,2.1374E4,1.00096E5,1.0095703E4,9.4625E2,0E0,0E0,0E0,0E0,0E0,0E0,0E0,0E0,0E0,0E0,0E0,0E0,0E0,0E0],"parents":[2147483647,0,0,1,1,2,2,3,3,4,4,5,5,6,6,7,7,8,8,10,10,11,11,15,15,16,16,17,17,19,19,20,20,23,23,24,24,25,25,26,26],"right_children":[2,4,6,8,10,12,14,16,18,-1,20,22,-1,-1,-1,24,26,28,-1,30,32,-1,-1,34,36,38,40,-1,-1,-1,-1,-1,-1,-1,-1,-1,-1,-1,-1,-1,-1],"split_conditions":[1.551E3,8.65E1,5.027E3,6E0,3.9965E3,1E1,8.5E2,3.25E2,1.25E1,2.8892103E1,4.935E2,6.25E3,2.0152296E1,1.6508354E2,2.3516273E1,4.076E3,1.514E3,4.1845E3,7.403019E1,1.2675E3,5.982E3,5.3532913E1,1.3058801E2,6.0935E3,5.025E2,3.3E1,6.794E3,6.424558E1,1.5524602E2,1.55431E2,9.0393654E1,1.2798233E2,2.5782825E1,2.2072998E1,9.846703E1,1.1857039E2,1.1149329E1,4.839556E1,7.0509524E0,9.6457016E1,2.7457472E1],"split_indices":[6,47,7,0,7,78,34,48,0,0,63,5,0,0,0,7,6,7,0,13,3,0,0,5,34,1,5,0,0,0,0,0,0,0,0,0,0,0,0,0,0],"split_type":[0,0,0,0,0,0,0,0,0,0,0,0,0,0,0,0,0,0,0,0,0,0,0,0,0,0,0,0,0,0,0,0,0,0,0,0,0,0,0,0,0],"sum_hessian":[1.341E3,1.226E3,1.15E2,1.087E3,1.39E2,4.2E1,7.3E1,1.032E3,5.5E1,1E0,1.38E2,4.1E1,1E0,7.2E1,1E0,1.014E3,1.8E1,5.1E1,4E0,8.7E1,5.1E1,2E0,3.9E1,5.5E1,9.59E2,6E0,1.2E1,2E0,4.9E1,8.2E1,5E0,5E1,1E0,1E0,5.4E1,9.58E2,1E0,5E0,1E0,1.1E1,1E0],"tree_param":{"num_deleted":"0","num_feature":"82","num_nodes":"41","size_leaf_vector":"0"}},{"base_weights":[2.9087955E2,2.8363278E2,3.59774E2,2.7824942E2,3.4730515E2,3.6218533E2,3.1589722E1,2.67972E2,3.0232126E2,3.5471622E2,9.7435486E1,3.2960718E2,4.1132953E2,2.495086E2,2.7908334E2,2.8251746E2,3.306154E2,2.0820724E2,3.6676453E2,1.23808044E2,3.3610178E2,4.154127E2,1.1583496E2,1.4022456E2,2.5381995E2,2.845046E2,2.2437514E2,2.9660327E2,2.1206674E2,3.3352325E2,-2.2249878E1,2.227056E2,4.611023E1,1.5726993E2,3.7572122E2,3.3798663E2,9.736841E1,1.7418744E2,-4.236849E1,2.5472377E2,-6.8548584E0,1.4495523E2,2.8641263E2,2.3351468E2,6.397461E0,2.043521E2,3.0446606E2,2.2671608E2,3.453064E1,3.3711734E2,7.0198814E1,3.781113E2,9.8233154E1],"categories":[],"categories_nodes":[],"categories_segments":[],"categories_sizes":[],"default_left":[1,1,1,1,1,1,0,1,1,1,0,1,1,1,1,1,1,1,1,0,1,0,0,1,1,1,1,1,1,1,0,0,0,0,1,0,0,0,0,0,0,0,0,0,0,0,0,0,0,0,0,0,0],"id":7,"left_children":[1,3,5,7,9,11,-1,13,15,17,-1,19,21,23,25,27,29,31,33,-1,35,-1,-1,37,39,41,43,45,47,49,-1,-1,-1,-1,51,-1,-1,-1,-1,-1,-1,-1,-1,-1,-1,-1,-1,-1,-1,-1,-1,-1,-1],"loss_changes":[5.6796E5,3.212E5,8.6688E4,1.98296E5,1.33952E5,6.1349E4,0E0,9.4488E4,9.1504E4,7.8974E4,0E0,6.3978E4,6.176E3,1.10466E5,8.1788E4,1.36565E5,1.40811E5,1.0882219E4,9.102E4,0E0,1.289E3,0E0,0E0,9.419947E4,7.1722E4,7.6436E4,9.612475E4,5.7464E4,8.84005E4,9.8423E4,0E0,0E0,0E0,0E0,1.3262E4,0E0,0E0,0E0,0E0,0E0,0E0,0E0,0E0,0E0,0E0,0E0,0E0,0E0,0E0,0E0,0E0,0E0,0E0],"parents":[2147483647,0,0,1,1,2,2,3,3,4,4,5,5,7,7,8,8,9,9,11,11,12,12,13,13,14,14,15,15,16,16,17,17,18,18,20,20,23,23,24,24,25,25,26,26,27,27,28,28,29,29,34,34],"right_children":[2,4,6,8,10,12,-1,14,16,18,-1,20,22,24,26,28,30,32,34,-1,36,-1,-1,38,40,42,44,46,48,50,-1,-1,-1,-1,52,-1,-1,-1,-1,-1,-1,-1,-1,-1,-1,-1,-1,-1,-1,-1,-1,-1,-1],"split_conditions":[5.318E3,6.891E3,7.95E2,1.5205E3,6.601E3,1.5E0,9.476917E0,6.7015E3,5.25E1,2.1E1,2.9230646E1,6.612E3,6.253E3,6.5105E3,8.5E0,5.92E3,7.366E3,7.5725E3,4.198E3,3.7142414E1,8.1E2,1.2462381E2,3.475049E1,6.487E3,5.5955E3,4.244E3,6.0895E3,4.0385E3,2.9E1,6.885E3,-6.6749635E0,6.681168E1,1.383307E1,4.718098E1,4.585E2,1.01395996E2,2.9210524E1,5.2256233E1,-1.2710547E1,7.641714E1,-2.0564575E0,4.3486572E1,8.592379E1,7.0054405E1,1.9192383E0,6.130563E1,9.133982E1,6.8014824E1,1.0359192E1,1.0113521E2,2.1059645E1,1.13433395E2,2.9469948E1],"split_indices":[7,5,28,6,8,76,0,2,1,1,0,5,10,5,80,8,3,9,7,0,50,0,0,5,10,10,8,7,70,5,0,0,0,0,1,0,0,0,0,0,0,0,0,0,0,0,0,0,0,0,0,0,0],"split_type":[0,0,0,0,0,0,0,0,0,0,0,0,0,0,0,0,0,0,0,0,0,0,0,0,0,0,0,0,0,0,0,0,0,0,0,0,0,0,0,0,0,0,0,0,0,0,0,0,0,0,0,0,0],"sum_hessian":[1.341E3,1.218E3,1.23E2,1.128E3,9E1,1.22E2,1E0,7.99E2,3.29E2,8.7E1,3E0,7.8E1,4.4E1,3.09E2,4.9E2,2E2,1.29E2,8E0,7.9E1,3E0,7.5E1,4.3E1,1E0,1.3E1,2.96E2,4.42E2,4.8E1,1.64E2,3.6E1,1.28E2,1E0,7E0,1E0,4E0,7.5E1,7.4E1,1E0,1.1E1,2E0,2.95E2,1E0,7E0,4.35E2,4.6E1,2E0,1.5E1,1.49E2,3.3E1,3E0,1.26E2,2E0,7.4E1,1E0],"tree_param":{"num_deleted":"0","num_feature":"82","num_nodes":"53","size_leaf_vector":"0"}},{"base_weights":[2.0458315E2,1.8783392E2,2.21812E2,1.3119322E2,1.9150577E2,2.1446378E2,2.7843564E2,1.5132613E2,6.3217243E1,1.8597942E2,2.3274977E2,2.0804189E2,2.5131949E2,2.821087E2,9.991854E1,2.1179361E1,1.5879843E2,9.21679E1,1.8905273E1,1.9951486E2,1.6468245E2,2.4210785E2,5.892998E1,2.0889568E2,4.9093933E1,2.5389139E2,2.1498047E1,2.8430826E2,6.517041E1,3.863452E1,-6.8654785E0,1.6203725E2,2.9197632E1,2.2634521E1,9.9984375E1,2.8670816E1,6.8547974E0,2.1200865E2,1.8145212E2,5.0725483E1,1.7022531E2,2.4552036E2,6.7352295E0,-5.0395752E1,9.886035E1,2.1048544E2,1.0978938E2,6.2238934E1,4.829468E0,9.670502E1,2.586972E2,1.12769775E2,2.8774567E2,1.6526353E2,3.2624268E1,1.6242676E0,8.056885E0,2.1300954E2,7.4173584E0,1.6645547E2,2.1778168E2,1.09365265E2,-5.3243263E1,2.0683699E2,1.5285307E2,5.0715088E1,2.4770354E2,2.0013565E2,2.3410762E2,1.9031E2,4.8093403E1,2.6255203E2,7.480908E1,2.895593E2,8.402307E1],"categories":[],"categories_nodes":[],"categories_segments":[],"categories_sizes":[],"default_left":[1,1,1,1,1,1,1,1,1,1,1,1,1,1,0,1,1,1,1,1,1,1,1,1,1,1,0,1,0,0,0,1,0,0,0,0,1,1,1,1,1,1,0,0,0,1,1,0,0,0,1,0,1,0,0,0,0,0,0,0,0,0,0,0,0,0,0,0,0,0,0,0,0,0,0],"id":8,"left_children":[1,3,5,7,9,11,13,15,17,19,21,23,25,27,-1,29,31,33,35,37,39,41,43,45,47,49,-1,51,-1,-1,-1,53,-1,-1,-1,-1,55,57,59,61,63,65,-1,-1,-1,67,69,-1,-1,-1,71,-1,73,-1,-1,-1,-1,-1,-1,-1,-1,-1,-1,-1,-1,-1,-1,-1,-1,-1,-1,-1,-1,-1,-1],"loss_changes":[3.456E5,1.17754E5,2.13236E5,5.20185E4,1.03272E5,8.6176E4,1.9023E4,2.9701625E4,1.3651863E4,1.32032E5,1.0284925E5,5.814E4,4.301E4,1.4873E4,0E0,1.7338258E3,8.701E3,1.5414453E3,5.095437E2,3.9386E4,1.353815E5,5.29645E4,2.6809229E4,5.5828E4,2.0268447E3,3.6171E4,0E0,8.2365E3,0E0,0E0,0E0,7.551625E3,0E0,0E0,0E0,0E0,1.2063675E1,3.8965E4,4.43825E4,7.8983414E4,1.06402E5,1.59325E4,0E0,0E0,0E0,7.3432E4,4.052533E4,0E0,0E0,0E0,3.5649E4,0E0,4.255E2,0E0,0E0,0E0,0E0,0E0,0E0,0E0,0E0,0E0,0E0,0E0,0E0,0E0,0E0,0E0,0E0,0E0,0E0,0E0,0E0,0E0,0E0],"parents":[2147483647,0,0,1,1,2,2,3,3,4,4,5,5,6,6,7,7,8,8,9,9,10,10,11,11,12,12,13,13,15,15,16,16,17,17,18,18,19,19,20,20,21,21,22,22,23,23,24,24,25,25,27,27,31,31,36,36,37,37,38,38,39,39,40,40,41,41,45,45,46,46,50,50,52,52],"right_children":[2,4,6,8,10,12,14,16,18,20,22,24,26,28,-1,30,32,34,36,38,40,42,44,46,48,50,-1,52,-1,-1,-1,54,-1,-1,-1,-1,56,58,60,62,64,66,-1,-1,-1,68,70,-1,-1,-1,72,-1,74,-1,-1,-1,-1,-1,-1,-1,-1,-1,-1,-1,-1,-1,-1,-1,-1,-1,-1,-1,-1,-1,-1],"split_conditions":[6.7475E3,4.405E3,5.3385E3,6.55E2,1.5E0,3.195E2,7.9E2,6.5305E3,6.7035E3,5.6785E3,4.775E3,1.525E2,1.0115E3,1.2375E3,2.9975563E1,2.5E0,2.28E3,1.6E1,4.2025E3,3.5E0,4.3165E3,7.447E3,1.59E3,3.175E2,6.35E1,4.2975E3,6.4494143E0,1.3E1,1.9551125E1,1.1590357E1,-2.0596437E0,1.25E3,8.75929E0,6.7903566E0,2.9995314E1,8.601245E0,1.55E1,6.35E2,6.101E3,1.5165E3,5.243E3,4.039E3,2.0205688E0,-1.5118726E1,2.9658106E1,7.43E3,5.65E2,1.867168E1,1.4488404E0,2.9011507E1,6.342E3,3.3830933E1,1.6245E3,4.9579063E1,9.787281E0,4.8728028E-1,2.4170656E0,6.3902863E1,2.2252076E0,4.9936646E1,6.53345E1,3.280958E1,-1.597298E1,6.2051098E1,4.5855923E1,1.5214527E1,7.4311066E1,6.00407E1,7.023229E1,5.7093002E1,1.4428021E1,7.876561E1,2.2442726E1,8.686779E1,2.5206923E1],"split_indices":[5,10,7,4,76,47,50,2,5,8,19,62,28,17,0,0,59,1,7,80,7,3,6,48,1,7,0,1,0,0,0,53,0,0,0,0,1,69,3,6,3,7,0,0,0,9,4,0,0,0,8,0,6,0,0,0,0,0,0,0,0,0,0,0,0,0,0,0,0,0,0,0,0,0,0],"split_type":[0,0,0,0,0,0,0,0,0,0,0,0,0,0,0,0,0,0,0,0,0,0,0,0,0,0,0,0,0,0,0,0,0,0,0,0,0,0,0,0,0,0,0,0,0,0,0,0,0,0,0,0,0,0,0,0,0,0,0,0,0,0,0,0,0,0,0,0,0,0,0,0,0,0,0],"sum_hessian":[1.341E3,6.86E2,6.55E2,4.4E1,6.42E2,5.84E2,7.1E1,3.3E1,1.1E1,5.71E2,7.1E1,5.03E2,8.1E1,6.9E1,2E0,2E0,3.1E1,6E0,5E0,3.44E2,2.27E2,6.7E1,4E0,5E2,3E0,8E1,1E0,6.8E1,1E0,1E0,1E0,3E1,1E0,1E0,5E0,2E0,3E0,1.97E2,1.47E2,1.1E1,2.16E2,6.6E1,1E0,1E0,3E0,4.91E2,9E0,2E0,1E0,3E0,7.7E1,2E0,6.6E1,2.9E1,1E0,1E0,2E0,1.96E2,1E0,1.08E2,3.9E1,7E0,4E0,6.6E1,1.5E2,1E0,6.5E1,3.48E2,1.43E2,3E0,6E0,7.5E1,2E0,6.5E1,1E0],"tree_param":{"num_deleted":"0","num_feature":"82","num_nodes":"75","size_leaf_vector":"0"}},{"base_weights":[1.4402205E2,1.3901445E2,1.7750098E2,1.3509158E2,1.7800024E2,1.5853024E2,2.0911166E2,1.3185645E2,1.6650749E2,1.120685E2,1.9432256E2,1.6196974E2,2.6031372E1,2.1487982E2,1.0153227E2,1.43573E2,1.2189291E2,1.828016E2,1.1292014E2,1.2135862E2,3.760077E1,2.0028375E2,1.01840576E2,1.6604303E2,4.485127E1,4.340796E1,-1.3049194E1,2.1675175E2,5.502588E1,-8.993652E0,1.3141217E2,1.2487292E2,1.5654825E2,5.778265E1,1.2506664E2,1.8972023E2,5.2148E1,1.5545631E2,4.4650814E1,1.2505108E2,2.5600952E1,9.070801E0,4.408716E1,2.0672806E2,9.0645424E1,7.7261558E0,1.3794112E2,1.7813335E2,1.12882195E2,-8.284505E0,8.303662E1,2.1861671E2,5.7089233E1,1.279798E2,1.0336751E1,1.5777359E2,2.1077473E-1,7.670615E1,1.1412761E1,1.2318983E2,2.2673416E2,7.637666E1,1.9561082E2,-5.0274902E1,9.032245E1,1.6560599E2,6.68042E0,-1.8946777E1,7.0868256E1,4.8371826E1,1.3122676E2,2.1087286E2,8.458435E1,-2.1265503E1,1.17280716E2,1.4654161E2,2.054838E2,1.475251E2,7.171934E1,2.2185493E2,8.853597E1],"categories":[],"categories_nodes":[],"categories_segments":[],"categories_sizes":[],"default_left":[1,1,1,1,1,1,1,1,1,1,1,1,1,1,1,1,1,1,1,1,1,1,1,1,1,0,0,1,0,0,0,1,1,1,1,1,1,1,1,1,0,0,0,1,1,0,0,1,1,0,0,1,0,0,0,0,0,0,0,0,0,0,0,0,0,0,0,0,0,0,0,0,0,0,0,0,0,0,0,0,0],"id":9,"left_children":[1,3,5,7,9,11,13,15,17,19,21,23,25,27,29,31,33,35,37,39,41,43,45,47,49,-1,-1,51,-1,-1,-1,53,55,57,59,61,63,65,67,69,-1,-1,-1,71,73,-1,-1,75,77,-1,-1,79,-1,-1,-1,-1,-1,-1,-1,-1,-1,-1,-1,-1,-1,-1,-1,-1,-1,-1,-1,-1,-1,-1,-1,-1,-1,-1,-1,-1,-1],"loss_changes":[2.0031E5,1.55194E5,6.93945E4,8.6692E4,9.014275E4,4.63695E4,1.60355E4,9.6204E4,6.318125E4,1.13485625E4,2.481E4,4.40755E4,3.2827861E3,5.1295E3,1.769439E4,8.7697E4,1.012225E5,5.519025E4,6.565669E4,3.8701875E3,3.403203E2,3.495825E4,2.2717312E4,4.67355E4,1.0832957E4,0E0,0E0,4.194E3,0E0,0E0,0E0,6.4865E4,4.91995E4,2.2816531E4,6.88095E4,3.046075E4,2.4090643E4,2.1544062E4,1.9683754E4,2.6497188E3,0E0,0E0,0E0,1.8108E4,2.037871E4,0E0,0E0,4.160425E4,2.0791594E4,0E0,0E0,3.5255E3,0E0,0E0,0E0,0E0,0E0,0E0,0E0,0E0,0E0,0E0,0E0,0E0,0E0,0E0,0E0,0E0,0E0,0E0,0E0,0E0,0E0,0E0,0E0,0E0,0E0,0E0,0E0,0E0,0E0],"parents":[2147483647,0,0,1,1,2,2,3,3,4,4,5,5,6,6,7,7,8,8,9,9,10,10,11,11,12,12,13,13,14,14,15,15,16,16,17,17,18,18,19,19,20,20,21,21,22,22,23,23,24,24,27,27,31,31,32,32,33,33,34,34,35,35,36,36,37,37,38,38,39,39,43,43,44,44,47,47,48,48,51,51],"right_children":[2,4,6,8,10,12,14,16,18,20,22,24,26,28,30,32,34,36,38,40,42,44,46,48,50,-1,-1,52,-1,-1,-1,54,56,58,60,62,64,66,68,70,-1,-1,-1,72,74,-1,-1,76,78,-1,-1,80,-1,-1,-1,-1,-1,-1,-1,-1,-1,-1,-1,-1,-1,-1,-1,-1,-1,-1,-1,-1,-1,-1,-1,-1,-1,-1,-1,-1,-1],"split_conditions":[5.197E3,6.8755E3,1.5E0,8.65E1,7.077E3,9.275E2,1.0025E3,5.4975E3,6.5E0,1.35E1,2E2,2.5E2,9.05E1,6.253E3,5.3395E3,6.7025E3,4.549E3,6.869E3,6.967E3,7.0135E3,4.1E1,8.6175E3,7.85E1,9.95E2,6.0035E3,1.3022388E1,-3.9147584E0,5.625E2,1.6507765E1,-2.6980958E0,3.9423653E1,8.7E2,7.5E2,6.9955E3,5.5E2,4.544E3,8.25E1,1.2025E3,5.02E3,2.53E2,7.680286E0,2.7212403E0,1.3226148E1,9.8E2,8.787E3,2.3178468E0,4.1382336E1,5.35E1,5.45E1,-2.4853516E0,2.4910988E1,5.705E2,1.712677E1,3.839394E1,3.1010253E0,4.7332077E1,6.323242E-2,2.3011845E1,3.4238284E0,3.695695E1,6.802025E1,2.2913E1,5.868325E1,-1.5082471E1,2.7096735E1,4.9681797E1,2.004126E0,-5.6840334E0,2.1260477E1,1.4511548E1,3.936803E1,6.326186E1,2.5375307E1,-6.379651E0,3.5184216E1,4.3962486E1,6.164514E1,4.425753E1,2.1515802E1,6.655648E1,2.6560793E1],"split_indices":[7,5,76,47,9,50,53,8,64,64,33,28,1,10,7,2,10,5,9,5,1,9,1,54,3,0,0,31,0,0,0,4,20,2,28,3,1,13,3,63,0,0,0,4,9,0,0,1,1,0,0,63,0,0,0,0,0,0,0,0,0,0,0,0,0,0,0,0,0,0,0,0,0,0,0,0,0,0,0,0,0],"split_type":[0,0,0,0,0,0,0,0,0,0,0,0,0,0,0,0,0,0,0,0,0,0,0,0,0,0,0,0,0,0,0,0,0,0,0,0,0,0,0,0,0,0,0,0,0,0,0,0,0,0,0,0,0,0,0,0,0,0,0,0,0,0,0,0,0,0,0,0,0,0,0,0,0,0,0,0,0,0,0,0,0],"sum_hessian":[1.341E3,1.171E3,1.7E2,1.068E3,1.03E2,1.1E2,6E1,9.73E2,9.5E1,2.2E1,8.1E1,1.07E2,3E0,5.6E1,4E0,4.41E2,5.32E2,7.1E1,2.4E1,1.9E1,3E0,7.5E1,6E0,1.03E2,4E0,2E0,1E0,5.5E1,1E0,1E0,3E0,1.85E2,2.56E2,2.6E1,5.06E2,6.7E1,4E0,1.4E1,1E1,1.8E1,1E0,1E0,2E0,7E1,5E0,2E0,4E0,8.2E1,2.1E1,2E0,2E0,5.4E1,1E0,1.8E2,5E0,2.54E2,2E0,1.8E1,8E0,4.99E2,7E0,4E0,6.3E1,1E0,3E0,1.3E1,1E0,3E0,7E0,2E0,1.6E1,6.7E1,3E0,1E0,4E0,4.1E1,4.1E1,1E1,1.1E1,5.2E1,2E0],"tree_param":{"num_deleted":"0","num_feature":"82","num_nodes":"81","size_leaf_vector":"0"}},{"base_weights":[1.0155028E2,9.49132E1,1.2145553E2,9.2306305E1,1.4029234E2,9.4091194E1,1.3335262E2,7.3172066E1,9.709427E1,1.4543042E2,6.180908E0,6.714599E1,1.098828E2,7.1731224E1,1.3922914E2,7.506441E1,-7.3590004E1,9.740298E1,-6.922327E1,1.5068484E2,1.1131348E1,8.822526E1,1.4957932E1,1.15588425E2,1.9438671E1,8.5853745E1,1.9762207E1,1.2454773E2,1.6762401E2,1.0900026E2,6.46787E1,9.8354E1,2.9688864E1,1.5358669E2,5.6984863E0,2.5290283E1,-8.593262E0,1.006616E2,4.9404324E1,3.31333E1,-5.6671062E1,1.1977766E2,-3.9329426E0,-1.5453125E1,4.785091E1,9.242967E1,-9.680542E0,3.212075E1,-2.1015259E1,1.26039734E2,-4.216638E1,1.752136E2,5.9996094E1,1.1631611E2,-2.9755045E1,-1.5934123E1,6.754855E1,1.0016138E2,5.9624844E1,6.457715E1,-3.2070168E1,3.6979736E1,1.5785265E2,1.1324458E2,3.774712E1,6.96403E0,6.053526E1,1.0023274E1,5.072111E1,1.0352918E2,1.5945468E2,-3.506909E1,2.9169678E1,1.0965332E1,6.0811035E1,9.985343E1,2.6975586E1,1.27486534E2,-3.7532837E1,1.7733488E2,2.1846802E1,-3.4368896E1,1.1577081E2],"categories":[],"categories_nodes":[],"categories_segments":[],"categories_sizes":[],"default_left":[1,1,1,1,1,1,1,1,1,1,0,1,1,1,1,1,0,1,0,1,1,1,1,1,1,1,1,1,1,1,1,1,1,1,0,0,0,1,1,1,0,1,1,0,1,1,0,0,0,1,0,1,1,0,0,0,0,0,0,0,0,0,0,0,0,0,0,0,0,0,0,0,0,0,0,0,0,0,0,0,0,0,0],"id":10,"left_children":[1,3,5,7,9,11,13,15,17,19,-1,21,23,25,27,29,-1,31,-1,33,35,37,39,41,43,45,47,49,51,53,55,57,59,61,-1,-1,-1,63,65,67,-1,69,71,-1,73,75,-1,-1,-1,77,-1,79,81,-1,-1,-1,-1,-1,-1,-1,-1,-1,-1,-1,-1,-1,-1,-1,-1,-1,-1,-1,-1,-1,-1,-1,-1,-1,-1,-1,-1,-1,-1],"loss_changes":[1.65768E5,1.0665E5,9.55375E4,8.0753E4,3.5622062E4,3.6874625E4,7.293825E4,5.9957875E4,4.5968E4,3.4311625E4,0E0,4.378386E4,3.0779688E4,1.4449883E4,6.5833E4,6.1324875E4,0E0,4.62155E4,0E0,1.9740375E4,1.0551646E3,9.0278125E3,1.8802182E4,3.051325E4,5.696217E3,1.1574609E4,3.6987273E3,4.038675E4,4.503375E4,4.8125938E4,3.6009688E4,4.6667E4,2.7926996E4,1.8039875E4,0E0,0E0,0E0,1.2350031E4,3.8300312E3,3.9626104E3,0E0,2.0883875E4,4.1150186E3,0E0,7.67312E2,5.081047E3,0E0,0E0,0E0,3.7917E4,0E0,1.6622E4,3.5558E4,0E0,0E0,0E0,0E0,0E0,0E0,0E0,0E0,0E0,0E0,0E0,0E0,0E0,0E0,0E0,0E0,0E0,0E0,0E0,0E0,0E0,0E0,0E0,0E0,0E0,0E0,0E0,0E0,0E0,0E0],"parents":[2147483647,0,0,1,1,2,2,3,3,4,4,5,5,6,6,7,7,8,8,9,9,11,11,12,12,13,13,14,14,15,15,17,17,19,19,20,20,21,21,22,22,23,23,24,24,25,25,26,26,27,27,28,28,29,29,30,30,31,31,32,32,33,33,37,37,38,38,39,39,41,41,42,42,44,44,45,45,49,49,51,51,52,52],"right_children":[2,4,6,8,10,12,14,16,18,20,-1,22,24,26,28,30,-1,32,-1,34,36,38,40,42,44,46,48,50,52,54,56,58,60,62,-1,-1,-1,64,66,68,-1,70,72,-1,74,76,-1,-1,-1,78,-1,80,82,-1,-1,-1,-1,-1,-1,-1,-1,-1,-1,-1,-1,-1,-1,-1,-1,-1,-1,-1,-1,-1,-1,-1,-1,-1,-1,-1,-1,-1,-1],"split_conditions":[1.5215E3,6E0,3.35E1,6.6695E3,2E2,4.791E3,4.476E3,4E0,1.025E3,5.075E2,1.8542725E0,5.442E3,6.552E3,3E0,6.9965E3,5.103E3,-2.2077002E1,3.3E2,-2.0766981E1,1.035E3,1.75E1,1.5265E3,5.5E0,1.1E1,1.5E0,4.2525E3,7.9E1,1.05E1,6.85E2,3.35E2,5.1615E3,6.957E3,2.5E0,2.4975E3,1.709546E0,7.5870852E0,-2.5779786E0,4.25E2,4.0785E3,4.702E3,-1.700132E1,1.558E3,2.5E0,-4.6359377E0,2.5E0,8.553E3,-2.9041626E0,9.636226E0,-6.304578E0,1E3,-1.2649915E1,3.835E2,6.724E3,3.4894833E1,-8.926514E0,-4.780237E0,2.0264566E1,3.0048414E1,1.7887453E1,1.9373146E1,-9.621051E0,1.1093922E1,4.7355797E1,3.3973377E1,1.1324137E1,2.089209E0,1.8160578E1,3.0069826E0,1.5216334E1,3.1058756E1,4.7836407E1,-1.0520728E1,8.750904E0,3.2895997E0,1.824331E1,2.995603E1,8.092676E0,3.824596E1,-1.1259851E1,5.3200466E1,6.554041E0,-1.0310669E1,3.4731247E1],"split_indices":[6,0,1,5,33,10,10,0,56,17,0,8,8,78,2,3,0,48,0,53,0,6,78,76,0,19,1,78,55,48,3,3,72,19,0,0,0,63,7,7,0,6,0,0,0,9,0,0,0,34,0,1,5,0,0,0,0,0,0,0,0,0,0,0,0,0,0,0,0,0,0,0,0,0,0,0,0,0,0,0,0,0,0],"split_type":[0,0,0,0,0,0,0,0,0,0,0,0,0,0,0,0,0,0,0,0,0,0,0,0,0,0,0,0,0,0,0,0,0,0,0,0,0,0,0,0,0,0,0,0,0,0,0,0,0,0,0,0,0,0,0,0,0,0,0,0,0,0,0,0,0,0,0,0,0,0,0,0,0,0,0,0,0,0,0,0,0,0,0],"sum_hessian":[1.341E3,1.01E3,3.31E2,9.58E2,5.2E1,1.03E2,2.28E2,1.95E2,7.63E2,5E1,2E0,4E1,6.3E1,2.1E1,2.07E2,1.93E2,2E0,7.62E2,1E0,4.8E1,2E0,2.8E1,1.2E1,5.9E1,4E0,1.6E1,5E0,1.4E2,6.7E1,4.3E1,1.5E2,7.51E2,1.1E1,4.7E1,1E0,1E0,1E0,2E1,8E0,1E1,2E0,5.7E1,2E0,2E0,2E0,1.5E1,1E0,4E0,1E0,1.39E2,1E0,6.2E1,5E0,4.1E1,2E0,5E0,1.45E2,7.16E2,3.5E1,7E0,4E0,2E0,4.5E1,1.6E1,4E0,2E0,6E0,5E0,5E0,4.3E1,1.4E1,1E0,1E0,1E0,1E0,1.3E1,2E0,1.38E2,1E0,6.1E1,1E0,2E0,3E0],"tree_param":{"num_deleted":"0","num_feature":"82","num_nodes":"83","size_leaf_vector":"0"}},{"base_weights":[7.1399025E1,5.3535862E1,7.582741E1,6.67439E1,2.4986275E1,7.247356E1,1.0809186E2,-4.0949464E0,7.041044E1,-6.3218067E1,2.999875E1,6.683562E1,8.499667E1,1.1447344E2,7.8662806E0,1.5459147E1,-2.674087E1,8.192791E1,5.5037067E1,-8.792255E1,1.7799927E1,6.2019226E1,1.345282E1,7.1510155E1,4.4084934E1,8.914225E1,4.887952E1,1.18855E2,-1.27300415E1,5.3131203E1,-7.019735E1,1.7931519E0,2.8527426E1,-5.779834E0,8.572164E1,3.320007E1,7.71497E1,8.6360664E1,1.6549671E1,-7.987435E1,2.4168707E1,7.278606E1,-1.4690647E1,7.8622925E1,3.0319372E1,6.871507E1,9.705897E1,7.412616E1,-8.352494E0,1.5003853E2,9.628297E1,2.2253092E1,-5.883972E1,6.709613E1,-1.3642578E0,-9.134497E1,-1.395105E1,-2.488037E0,4.0495605E0,8.902527E0,-3.225464E1,9.82373E0,8.987518E1,4.6104965E1,-6.1864567E0,9.514794E1,4.6455368E1,8.9420784E1,1.7169312E1,-1.7178173E1,3.8276752E1,-1.8509033E1,-8.84456E1,1.3841669E1,9.931454E1,7.449828E1,2.0832674E1,2.9400208E1,-4.163611E1,4.109157E1,9.55208E1,1.5428185E0,5.306867E1,1.04301506E2,4.891606E1,1.1424676E2,7.975771E1,2.0920763E1,1.0110765E2,3.952934E1,-5.4842243E1,1.649966E2,4.774882E1,4.8769737E1,1.08408295E2],"categories":[],"categories_nodes":[],"categories_segments":[],"categories_sizes":[],"default_left":[1,1,1,1,1,1,1,1,1,1,1,1,1,1,1,1,0,1,1,0,0,1,1,1,1,1,1,1,1,1,1,1,0,1,1,1,1,1,1,1,1,1,1,1,1,1,1,1,1,1,1,0,0,0,0,0,0,0,0,0,0,0,0,0,0,0,0,0,0,0,0,0,0,0,0,0,0,0,0,0,0,0,0,0,0,0,0,0,0,0,0,0,0,0,0],"id":11,"left_children":[1,3,5,7,9,11,13,15,17,19,21,23,25,27,29,31,-1,33,35,-1,-1,37,39,41,43,45,47,49,51,53,55,57,-1,59,61,63,65,67,69,71,73,75,77,79,81,83,85,87,89,91,93,-1,-1,-1,-1,-1,-1,-1,-1,-1,-1,-1,-1,-1,-1,-1,-1,-1,-1,-1,-1,-1,-1,-1,-1,-1,-1,-1,-1,-1,-1,-1,-1,-1,-1,-1,-1,-1,-1,-1,-1,-1,-1,-1,-1],"loss_changes":[1.020995E5,1.0014494E5,1.082755E5,4.8079312E4,4.0361082E4,6.31585E4,6.241975E4,4.8415957E3,2.6476812E4,1.1572551E4,4.3139773E4,6.88455E4,4.041075E4,5.3346625E4,2.8464477E4,1.02039197E3,0E0,3.3104E4,3.510275E4,0E0,0E0,2.9561008E4,5.7935125E4,6.266025E4,5.3717516E4,3.6509E4,4.830136E4,4.8902625E4,7.7616104E3,3.896662E3,2.2940674E3,4.8715904E1,0E0,2.230711E3,2.8750188E4,2.1124664E4,1.657275E4,2.2759219E3,8.718408E3,1.5188242E3,3.820304E4,4.755175E4,1.1916547E4,1.7003484E4,5.6217695E4,4.9854938E4,4.7388375E4,3.0902648E4,2.6654035E4,4.7203562E4,2.6399219E4,0E0,0E0,0E0,0E0,0E0,0E0,0E0,0E0,0E0,0E0,0E0,0E0,0E0,0E0,0E0,0E0,0E0,0E0,0E0,0E0,0E0,0E0,0E0,0E0,0E0,0E0,0E0,0E0,0E0,0E0,0E0,0E0,0E0,0E0,0E0,0E0,0E0,0E0,0E0,0E0,0E0,0E0,0E0,0E0],"parents":[2147483647,0,0,1,1,2,2,3,3,4,4,5,5,6,6,7,7,8,8,9,9,10,10,11,11,12,12,13,13,14,14,15,15,17,17,18,18,21,21,22,22,23,23,24,24,25,25,26,26,27,27,28,28,29,29,30,30,31,31,33,33,34,34,35,35,36,36,37,37,38,38,39,39,40,40,41,41,42,42,43,43,44,44,45,45,46,46,47,47,48,48,49,49,50,50],"right_children":[2,4,6,8,10,12,14,16,18,20,22,24,26,28,30,32,-1,34,36,-1,-1,38,40,42,44,46,48,50,52,54,56,58,-1,60,62,64,66,68,70,72,74,76,78,80,82,84,86,88,90,92,94,-1,-1,-1,-1,-1,-1,-1,-1,-1,-1,-1,-1,-1,-1,-1,-1,-1,-1,-1,-1,-1,-1,-1,-1,-1,-1,-1,-1,-1,-1,-1,-1,-1,-1,-1,-1,-1,-1,-1,-1,-1,-1,-1,-1],"split_conditions":[4.3175E3,5.356E3,1.015E2,3.8515E3,6.5E0,1.5205E3,1.75E1,1E1,5.1665E3,2.5E0,5.65E2,4.5E0,1.8175E3,5E2,1.135E2,1.534E3,-8.022262E0,4.593E3,6.7325E3,-2.6376764E1,5.339978E0,3.95E2,6.5765E3,2.1775E3,6.842E3,4.7935E3,5.9965E3,3.635E2,5.77E3,1.5185E3,1.5E0,1.5E0,8.5582285E0,7.3E2,6.6E3,6.75E2,1.725E2,7.5E0,5.424E3,3.85E1,4.79E3,2E2,4.726E3,4.35E1,7.171E3,5.363E3,5.8045E3,2.4025E3,2.9E1,6.225E2,3.975E2,6.6759276E0,-1.7651917E1,2.012884E1,-4.0927735E-1,-2.7403492E1,-4.185315E0,-7.4641114E-1,1.2148682E0,2.6707582E0,-9.676392E0,2.9471192E0,2.6962557E1,1.38314905E1,-1.8559371E0,2.8544384E1,1.3936611E1,2.6826237E1,5.1507936E0,-5.153452E0,1.14830265E1,-5.55271E0,-2.6533682E1,4.152501E0,2.9794363E1,2.2349485E1,6.2498026E0,8.820063E0,-1.2490833E1,1.2327472E1,2.865624E1,4.628456E-1,1.5920601E1,3.1290453E1,1.4674819E1,3.427403E1,2.3927315E1,6.2762294E0,3.0332296E1,1.1858802E1,-1.6452673E1,4.949898E1,1.4324647E1,1.4630921E1,3.252249E1],"split_indices":[7,8,1,7,1,6,71,65,8,0,4,64,54,56,1,6,0,3,5,0,0,13,2,50,9,10,8,63,3,6,0,0,0,4,5,4,54,0,8,1,19,33,7,1,9,8,8,54,70,47,63,0,0,0,0,0,0,0,0,0,0,0,0,0,0,0,0,0,0,0,0,0,0,0,0,0,0,0,0,0,0,0,0,0,0,0,0,0,0,0,0,0,0,0,0],"split_type":[0,0,0,0,0,0,0,0,0,0,0,0,0,0,0,0,0,0,0,0,0,0,0,0,0,0,0,0,0,0,0,0,0,0,0,0,0,0,0,0,0,0,0,0,0,0,0,0,0,0,0,0,0,0,0,0,0,0,0,0,0,0,0,0,0,0,0,0,0,0,0,0,0,0,0,0,0,0,0,0,0,0,0,0,0,0,0,0,0,0,0,0,0,0,0],"sum_hessian":[1.341E3,2.69E2,1.072E3,1.83E2,8.6E1,9.74E2,9.8E1,9E0,1.74E2,4E0,8.2E1,6.76E2,2.98E2,9.2E1,6E0,5E0,4E0,9.7E1,7.7E1,3E0,1E0,2.7E1,5.5E1,5.59E2,1.17E2,2.66E2,3.2E1,8.9E1,3E0,4E0,2E0,3E0,2E0,4E0,9.3E1,4E1,3.7E1,1.7E1,1E1,5E0,5E1,5.51E2,8E0,3.2E1,8.5E1,7.7E1,1.89E2,2.2E1,1E1,3.5E1,5.4E1,2E0,1E0,3E0,1E0,1E0,1E0,1E0,2E0,3E0,1E0,5E0,8.8E1,3E1,1E1,2.2E1,1.5E1,1.6E1,1E0,4E0,6E0,1E0,4E0,4.5E1,5E0,5.33E2,1.8E1,3E0,5E0,1.1E1,2.1E1,3.8E1,4.7E1,2.6E1,5.1E1,9.2E1,9.7E1,8E0,1.4E1,5E0,5E0,3E1,5E0,1.2E1,4.2E1],"tree_param":{"num_deleted":"0","num_feature":"82","num_nodes":"95","size_leaf_vector":"0"}},{"base_weights":[5.0280487E1,4.319332E1,5.7430584E1,4.818914E1,2.7618164E1,5.4987404E1,1.09115944E2,4.5005737E1,1.13914276E2,3.665684E1,-1.1659279E1,5.6770924E1,2.5494273E0,1.4157373E2,7.389563E1,2.3322874E1,5.0436123E1,1.3848615E2,2.121293E1,-1.0105225E1,4.3875675E1,1.9116943E1,-4.363031E1,5.1270687E1,7.266091E1,1.2495722E1,-1.0316138E2,1.4619872E2,4.0724487E1,1.1631429E2,4.4040394E1,3.714156E1,-4.594037E0,4.814588E1,1.0463509E2,1.4941188E2,3.4053547E1,5.4624023E0,2.7722595E1,2.466868E1,-6.100293E1,-6.1947815E1,4.7174965E1,3.409629E1,-6.21521E1,-6.3514065E1,3.1899475E1,5.2325016E1,-2.4585066E1,4.0606594E1,8.610997E1,-4.803534E1,2.5252861E1,2.3556519E1,1.3015454E2,4.960139E1,-5.78479E0,3.1435366E1,8.991532E1,-8.6193726E1,1.2447072E1,6.009221E1,3.9898148E1,-9.212158E0,1.2285868E2,1.5596835E2,2.5532349E1,8.846029E-2,7.380701E1,-7.88062E1,-2.3498108E1,-7.7164795E1,-8.1484375E0,7.429067E1,3.716745E1,1.3337294E1,5.5915527E1,-9.9376915E1,-2.8677673E1,-1.1574341E1,5.024886E1,6.594611E1,4.478549E1,-5.5160583E1,1.2136719E1,9.2602585E1,1.1714767E1,9.153282E1,-2.2237875E1,-6.090918E1,-4.706909E0,3.693119E1,-4.2589927E0,5.374121E1,6.171509E0],"categories":[],"categories_nodes":[],"categories_segments":[],"categories_sizes":[],"default_left":[1,1,1,1,1,1,1,1,1,1,1,1,1,1,1,1,1,1,1,1,1,1,1,1,1,1,0,0,0,1,1,1,1,1,1,1,0,0,0,1,1,1,1,1,0,1,1,1,1,1,1,1,1,0,0,1,0,0,0,0,0,0,0,0,0,0,0,0,0,0,0,0,0,0,0,0,0,0,0,0,0,0,0,0,0,0,0,0,0,0,0,0,0,0,0],"id":12,"left_children":[1,3,5,7,9,11,13,15,17,19,21,23,25,27,29,31,33,35,37,39,41,43,45,47,49,51,-1,-1,-1,53,55,57,59,61,63,65,-1,-1,-1,67,69,71,73,75,-1,77,79,81,83,85,87,89,91,-1,-1,93,-1,-1,-1,-1,-1,-1,-1,-1,-1,-1,-1,-1,-1,-1,-1,-1,-1,-1,-1,-1,-1,-1,-1,-1,-1,-1,-1,-1,-1,-1,-1,-1,-1,-1,-1,-1,-1,-1,-1],"loss_changes":[6.552375E4,5.1424625E4,7.7974E4,1.01998875E5,5.9715086E4,5.9430125E4,2.2690344E4,5.6519438E4,4.945275E4,4.635258E4,3.23204E4,5.0112375E4,2.4420553E4,5.7609375E2,1.514018E4,3.8748137E4,4.3496562E4,1.54500625E4,4.6375195E2,3.513319E4,4.412117E4,2.2814227E4,2.6055117E4,3.8155625E4,6.3755E4,1.7429297E4,0E0,0E0,0E0,4.636758E3,3.334789E3,1.7349688E4,4.8351535E4,3.474825E4,3.225239E4,9.0131875E3,0E0,0E0,0E0,1.4487441E4,3.489871E3,2.6458848E3,2.8445312E4,6.048422E3,0E0,1.3391422E4,3.7724683E3,4.3773625E4,8.528982E3,7.102362E4,6.607894E4,1.9445195E3,6.3609746E3,0E0,0E0,1.4662539E3,0E0,0E0,0E0,0E0,0E0,0E0,0E0,0E0,0E0,0E0,0E0,0E0,0E0,0E0,0E0,0E0,0E0,0E0,0E0,0E0,0E0,0E0,0E0,0E0,0E0,0E0,0E0,0E0,0E0,0E0,0E0,0E0,0E0,0E0,0E0,0E0,0E0,0E0,0E0],"parents":[2147483647,0,0,1,1,2,2,3,3,4,4,5,5,6,6,7,7,8,8,9,9,10,10,11,11,12,12,13,13,14,14,15,15,16,16,17,17,18,18,19,19,20,20,21,21,22,22,23,23,24,24,25,25,29,29,30,30,31,31,32,32,33,33,34,34,35,35,39,39,40,40,41,41,42,42,43,43,45,45,46,46,47,47,48,48,49,49,50,50,51,51,52,52,55,55],"right_children":[2,4,6,8,10,12,14,16,18,20,22,24,26,28,30,32,34,36,38,40,42,44,46,48,50,52,-1,-1,-1,54,56,58,60,62,64,66,-1,-1,-1,68,70,72,74,76,-1,78,80,82,84,86,88,90,92,-1,-1,94,-1,-1,-1,-1,-1,-1,-1,-1,-1,-1,-1,-1,-1,-1,-1,-1,-1,-1,-1,-1,-1,-1,-1,-1,-1,-1,-1,-1,-1,-1,-1,-1,-1,-1,-1,-1,-1,-1,-1],"split_conditions":[6.7465E3,5.1E3,5.681E3,5.0475E3,4.49E3,5.548E3,5.9655E3,2.34E2,1.5225E3,4.619E3,1.71E2,7.543E3,9.25E2,1.28E3,5.7575E3,5.584E3,5.184E3,1.6E1,6.638E3,6.631E3,1.65E3,9.1875E3,3.225E2,2.25E1,4.7965E3,5E-1,-3.0948414E1,4.3859615E1,1.2217347E1,3.7E1,7.0635E3,4.8415E3,3.465E3,3.425E2,6.675E3,1.6E2,1.0216064E1,1.6387208E0,8.316779E0,6.3865E3,6.2945E3,6.4545E3,5E-1,1.3E1,-1.864563E1,1.5E0,9.5E0,3.4875E3,9E1,5.6035E3,1.05E1,4.5E0,7.0035E3,7.066956E0,3.9046364E1,7.0095E3,-1.735437E0,9.43061E0,2.6974598E1,-2.5858118E1,3.7341218E0,1.8027664E1,1.1969444E1,-2.7636476E0,3.6857605E1,4.679051E1,7.6597047E0,2.6538087E-2,2.2142103E1,-2.3641861E1,-7.0494328E0,-2.3149439E1,-2.4445314E0,2.2287203E1,1.1150235E1,4.0011883E0,1.6774658E1,-2.9813076E1,-8.603302E0,-3.4723024E0,1.5074658E1,1.9783834E1,1.3435647E1,-1.6548176E1,3.6410158E0,2.7780777E1,3.5144303E0,2.7459848E1,-6.671363E0,-1.8272755E1,-1.4120728E0,1.1079357E1,-1.2776978E0,1.6122364E1,1.8514527E0],"split_indices":[5,10,7,10,19,10,7,63,6,7,63,9,4,4,3,8,7,71,5,5,19,9,63,72,7,73,0,0,0,1,7,7,19,63,2,48,0,0,0,3,3,2,72,1,0,73,1,19,1,8,73,0,2,0,0,2,0,0,0,0,0,0,0,0,0,0,0,0,0,0,0,0,0,0,0,0,0,0,0,0,0,0,0,0,0,0,0,0,0,0,0,0,0,0,0],"split_type":[0,0,0,0,0,0,0,0,0,0,0,0,0,0,0,0,0,0,0,0,0,0,0,0,0,0,0,0,0,0,0,0,0,0,0,0,0,0,0,0,0,0,0,0,0,0,0,0,0,0,0,0,0,0,0,0,0,0,0,0,0,0,0,0,0,0,0,0,0,0,0,0,0,0,0,0,0,0,0,0,0,0,0,0,0,0,0,0,0,0,0,0,0,0,0],"sum_hessian":[1.341E3,6.77E2,6.64E2,5.11E2,1.66E2,6.36E2,2.8E1,4.89E2,2.2E1,1.35E2,3.1E1,6.15E2,2.1E1,1.3E1,1.5E1,9.9E1,3.9E2,1.7E1,5E0,1.8E1,1.17E2,1.6E1,1.5E1,4.6E2,1.55E2,2E1,1E0,1.2E1,1E0,5E0,1E1,6.6E1,3.3E1,3.76E2,1.4E1,1.5E1,2E0,2E0,3E0,1.1E1,7E0,3E0,1.14E2,1.4E1,2E0,1.2E1,3E0,4.54E2,6E0,4.7E1,1.08E2,3E0,1.7E1,1E0,4E0,9E0,1E0,6.1E1,5E0,5E0,2.8E1,1.51E2,2.25E2,2E0,1.2E1,1.4E1,1E0,8E0,3E0,4E0,3E0,2E0,1E0,2.9E1,8.5E1,8E0,6E0,5E0,7E0,1E0,2E0,1.59E2,2.95E2,3E0,3E0,1.6E1,3.1E1,1.03E2,5E0,2E0,1E0,1.2E1,5E0,8E0,1E0],"tree_param":{"num_deleted":"0","num_feature":"82","num_nodes":"95","size_leaf_vector":"0"}},{"base_weights":[3.540322E1,3.46954E1,8.853058E1,3.2394466E1,5.1379654E1,1.1742536E2,3.047726E1,3.1296207E1,7.16662E1,6.437006E1,3.7064358E1,2.5329428E1,1.3507674E2,4.3976612E1,-2.1807454E0,2.9422342E1,5.228143E1,9.0489174E1,1.5600124E1,2.200369E1,7.430731E1,5.5031044E1,4.8092337E0,-4.9171143E0,1.6459961E0,2.896137E1,1.1969658E2,5.880642E1,3.8809612E0,9.768575E1,9.950032E0,-3.9567505E1,4.9778522E1,7.769348E0,4.6805096E1,8.792572E1,4.0938057E1,-7.7494995E1,5.931719E1,-3.0318405E1,4.461159E1,3.2462563E1,1.7301222E1,1.3591162E2,2.7418213E1,6.6186424E1,5.8258166E0,-4.641211E1,4.6434883E1,1.9943848E0,1.02370605E2,1.4907471E1,1.7578125E-2,-7.456136E0,-6.7950806E1,6.725327E1,-1.8797607E1,-9.981725E0,2.7184042E1,5.883384E1,-6.6693115E0,9.104421E1,-2.6203125E1,5.1089436E1,-1.4977661E1,8.070728E1,2.1295603E1,-5.591664E1,2.2694092E0,6.9295456E1,-1.3678467E1],"categories":[],"categories_nodes":[],"categories_segments":[],"categories_sizes":[],"default_left":[1,1,1,1,1,1,1,1,1,1,1,0,0,0,1,1,1,1,1,1,1,1,1,0,0,1,1,1,1,1,1,1,1,1,1,1,1,0,1,1,1,0,0,0,0,0,0,0,0,0,0,0,0,0,0,0,0,0,0,0,0,0,0,0,0,0,0,0,0,0,0],"id":13,"left_children":[1,3,5,7,9,11,13,15,17,19,21,-1,-1,-1,23,25,27,29,31,33,35,37,39,-1,-1,41,43,45,47,49,51,53,55,57,59,61,63,-1,65,67,69,-1,-1,-1,-1,-1,-1,-1,-1,-1,-1,-1,-1,-1,-1,-1,-1,-1,-1,-1,-1,-1,-1,-1,-1,-1,-1,-1,-1,-1,-1],"loss_changes":[4.7393625E4,4.924E4,2.493764E4,4.81335E4,2.7182062E4,1.4460422E4,3.181935E3,4.3212E4,3.1303594E4,3.2887375E4,4.4937727E4,0E0,0E0,0E0,3.950768E1,4.0103188E4,2.8826547E4,1.2358984E4,1.8939482E4,5.6378936E3,2.6393281E4,3.299808E4,4.1899273E4,0E0,0E0,4.2018125E4,3.7550312E3,3.1285156E4,2.7837152E4,9.210125E3,1.4745654E2,3.1390566E3,8.454302E3,4.406923E3,4.2517617E3,1.8757469E4,1.2685254E4,0E0,3.813225E4,1.3473945E4,2.1091395E4,0E0,0E0,0E0,0E0,0E0,0E0,0E0,0E0,0E0,0E0,0E0,0E0,0E0,0E0,0E0,0E0,0E0,0E0,0E0,0E0,0E0,0E0,0E0,0E0,0E0,0E0,0E0,0E0,0E0,0E0],"parents":[2147483647,0,0,1,1,2,2,3,3,4,4,5,5,6,6,7,7,8,8,9,9,10,10,14,14,15,15,16,16,17,17,18,18,19,19,20,20,21,21,22,22,25,25,26,26,27,27,28,28,29,29,30,30,31,31,32,32,33,33,34,34,35,35,36,36,38,38,39,39,40,40],"right_children":[2,4,6,8,10,12,14,16,18,20,22,-1,-1,-1,24,26,28,30,32,34,36,38,40,-1,-1,42,44,46,48,50,52,54,56,58,60,62,64,-1,66,68,70,-1,-1,-1,-1,-1,-1,-1,-1,-1,-1,-1,-1,-1,-1,-1,-1,-1,-1,-1,-1,-1,-1,-1,-1,-1,-1,-1,-1,-1,-1],"split_conditions":[7.492E3,1.5295E3,6.07E3,7.059E3,8.577E3,6.6945E3,7.2685E3,4.6E2,7.2145E3,3.35E1,1.1E1,7.598829E0,4.052302E1,1.3192985E1,1.5E0,4.85E2,7.5E0,1.125E3,3E0,4.675E2,2.41E2,8.597E3,3.5E0,-1.4751344E0,4.9379885E-1,6.9955E3,5.247E3,1.055E3,4.862E3,2.7E2,4.5E0,3.35E1,7.85E1,2.5E0,2.5E0,5.5385E3,5.2735E3,-2.3248499E1,3.5E0,9.034E3,5E0,9.73877E0,5.1903667E0,4.0773487E1,8.225464E0,1.9855928E1,1.747745E0,-1.3923634E1,1.3930466E1,5.983155E-1,3.0711184E1,4.4722414E0,5.2734376E-3,-2.236841E0,-2.0385242E1,2.0175983E1,-5.639282E0,-2.9945176E0,8.155213E0,1.7650152E1,-2.0007935E0,2.7313265E1,-7.8609376E0,1.5326831E1,-4.4932985E0,2.4212187E1,6.388681E0,-1.6774994E1,6.808228E-1,2.0788637E1,-4.1035404E0],"split_indices":[8,6,10,2,9,5,10,47,2,1,76,0,0,0,0,58,80,13,72,13,54,9,73,0,0,2,3,47,7,4,0,1,1,0,0,10,10,0,73,9,80,0,0,0,0,0,0,0,0,0,0,0,0,0,0,0,0,0,0,0,0,0,0,0,0,0,0,0,0,0,0],"split_type":[0,0,0,0,0,0,0,0,0,0,0,0,0,0,0,0,0,0,0,0,0,0,0,0,0,0,0,0,0,0,0,0,0,0,0,0,0,0,0,0,0,0,0,0,0,0,0,0,0,0,0,0,0,0,0,0,0,0,0,0,0,0,0,0,0,0,0,0,0,0,0],"sum_hessian":[1.341E3,1.325E3,1.6E1,1.167E3,1.58E2,1E1,6E0,1.137E3,3E1,8.1E1,7.7E1,2E0,8E0,4E0,2E0,1.046E3,9.1E1,2.2E1,8E0,1.6E1,6.5E1,4.9E1,2.8E1,1E0,1E0,1.042E3,4E0,8E1,1.1E1,2E1,2E0,3E0,5E0,1.1E1,5E0,4.5E1,2E1,1E0,4.8E1,1.5E1,1.3E1,8E2,2.42E2,3E0,1E0,7E1,1E1,5E0,6E0,1E0,1.9E1,1E0,1E0,2E0,1E0,4E0,1E0,6E0,5E0,4E0,1E0,4.4E1,1E0,1.7E1,3E0,3E1,1.8E1,8E0,7E0,9E0,4E0],"tree_param":{"num_deleted":"0","num_feature":"82","num_nodes":"71","size_leaf_vector":"0"}},{"base_weights":[2.4955574E1,2.438065E1,8.185507E1,1.3015213E1,2.7051474E1,2.4350796E1,1.2766577E2,2.2254717E1,4.3519297E-1,2.5651163E1,5.0335873E1,3.473112E1,-1.8965576E1,3.4767212E1,1.3735432E2,-2.633278E1,2.7164942E1,1.9485085E1,-1.1797353E1,2.2024092E1,3.6809204E1,6.0197083E1,1.005326E1,5.0340332E1,1.4341431E1,-2.8893433E0,-1.1132894E2,7.161137E1,2.2206184E1,3.4408035E1,-2.1933207E1,1.9229843E1,-2.9562063E1,2.117016E1,7.9020706E1,1.0676721E1,4.4730293E1,-1.8109985E1,6.582E1,6.0341698E1,-1.9001791E1,-2.2247803E1,2.866206E1,1.7168783E0,8.4163376E1,2.6161896E1,-3.0366835E1,-5.8382235E0,5.2967163E1,-6.4191E1,1.7421072E1,-2.940507E1,3.2858826E1,-8.5164955E1,-1.4419545E1,2.3409369E1,-2.730136E0,9.165582E1,3.39953E1,1.606094E1,-6.737152E1,3.8473972E1,8.848384E1,-3.184204E0,-2.2023844E1,-5.939392E0,7.108708E1,-4.1597088E1,1.9641602E1],"categories":[],"categories_nodes":[],"categories_segments":[],"categories_sizes":[],"default_left":[1,1,1,1,1,1,1,1,1,1,1,1,0,0,0,1,1,1,1,1,1,1,1,0,0,1,0,1,1,1,1,1,1,1,1,1,1,1,1,0,1,0,0,0,0,0,0,0,0,0,0,0,0,0,0,0,0,0,0,0,0,0,0,0,0,0,0,0,0],"id":14,"left_children":[1,3,5,7,9,11,13,15,17,19,21,23,-1,-1,-1,25,27,29,31,33,35,37,39,-1,-1,41,-1,43,45,47,49,51,53,55,57,59,61,63,65,-1,67,-1,-1,-1,-1,-1,-1,-1,-1,-1,-1,-1,-1,-1,-1,-1,-1,-1,-1,-1,-1,-1,-1,-1,-1,-1,-1,-1,-1],"loss_changes":[4.1905062E4,4.0020188E4,3.113729E4,2.9629766E4,3.3792188E4,3.8061616E3,1.5249375E3,3.5785938E4,2.5629996E4,4.0348375E4,2.3228953E4,1.1876504E3,0E0,0E0,0E0,2.7574764E4,2.7943266E4,2.7332254E4,3.749815E4,3.5803875E4,5.0857875E4,2.2327078E4,2.014133E4,0E0,0E0,7.967107E3,0E0,1.1260609E4,2.616602E4,2.4211172E4,2.1074576E4,1.7537324E4,3.4976574E4,4.0737375E4,3.1420469E3,2.5875549E4,4.8605562E4,1.6354114E2,1.7430547E4,0E0,8.675463E3,0E0,0E0,0E0,0E0,0E0,0E0,0E0,0E0,0E0,0E0,0E0,0E0,0E0,0E0,0E0,0E0,0E0,0E0,0E0,0E0,0E0,0E0,0E0,0E0,0E0,0E0,0E0,0E0],"parents":[2147483647,0,0,1,1,2,2,3,3,4,4,5,5,6,6,7,7,8,8,9,9,10,10,11,11,15,15,16,16,17,17,18,18,19,19,20,20,21,21,22,22,25,25,27,27,28,28,29,29,30,30,31,31,32,32,33,33,34,34,35,35,36,36,37,37,38,38,40,40],"right_children":[2,4,6,8,10,12,14,16,18,20,22,24,-1,-1,-1,26,28,30,32,34,36,38,40,-1,-1,42,-1,44,46,48,50,52,54,56,58,60,62,64,66,-1,68,-1,-1,-1,-1,-1,-1,-1,-1,-1,-1,-1,-1,-1,-1,-1,-1,-1,-1,-1,-1,-1,-1,-1,-1,-1,-1,-1,-1],"split_conditions":[1.4975E3,6.6685E3,4.6445E3,3.5E0,5E0,6.725E3,3.75E1,5.35E2,3.7825E3,7.35E2,4.5175E3,1.8E3,-5.689673E0,1.0430164E1,4.12063E1,7.65E2,1.5045E3,4.969E3,2.025E2,6.59E2,6.696E3,6.8235E3,1.515E2,1.51021E1,4.302429E0,4.915E3,-3.3398685E1,2.65E1,4.5675E3,4.626E3,7.41E3,9E0,1.5E0,1.175E2,4.5E1,7.4E2,8.4775E3,1.15E1,2.4975E3,1.810251E1,3.9E1,-6.674341E0,8.5986185E0,5.150635E-1,2.5249014E1,7.848569E0,-9.110051E0,-1.7514671E0,1.5890149E1,-1.9257301E1,5.2263217E0,-8.821521E0,9.857648E0,-2.5549488E1,-4.325864E0,7.022811E0,-8.1904083E-1,2.7496748E1,1.019859E1,4.818282E0,-2.0211456E1,1.1542192E1,2.6545153E1,-9.552613E-1,-6.6071534E0,-1.7818177E0,2.1326126E1,-1.2479127E1,5.892481E0],"split_indices":[53,5,7,80,0,2,1,4,19,4,19,53,0,0,0,54,6,10,63,63,2,5,63,0,0,10,0,1,19,10,9,1,73,53,70,14,9,0,19,0,1,0,0,0,0,0,0,0,0,0,0,0,0,0,0,0,0,0,0,0,0,0,0,0,0,0,0,0,0],"split_type":[0,0,0,0,0,0,0,0,0,0,0,0,0,0,0,0,0,0,0,0,0,0,0,0,0,0,0,0,0,0,0,0,0,0,0,0,0,0,0,0,0,0,0,0,0,0,0,0,0,0,0,0,0,0,0,0,0,0,0,0,0,0,0,0,0,0,0,0,0],"sum_hessian":[1.341E3,1.329E3,1.2E1,2.54E2,1.075E3,6E0,6E0,1.46E2,1.08E2,1.016E3,5.9E1,5E0,1E0,1E0,5E0,1.3E1,1.33E2,4.2E1,6.6E1,7.69E2,2.47E2,4.7E1,1.2E1,2E0,3E0,1.1E1,2E0,1.2E1,1.21E2,3.1E1,1.1E1,2.4E1,4.2E1,7.59E2,1E1,5.8E1,1.89E2,3E0,4.4E1,4E0,8E0,7E0,4E0,2E0,1E1,1.13E2,8E0,1E1,2.1E1,5E0,6E0,5E0,1.9E1,8E0,3.4E1,6.94E2,6.5E1,7E0,3E0,5.5E1,3E0,1.67E2,2.2E1,1E0,2E0,3E0,4.1E1,5E0,3E0],"tree_param":{"num_deleted":"0","num_feature":"82","num_nodes":"69","size_leaf_vector":"0"}},{"base_weights":[1.7558168E1,1.8209032E1,-2.2321266E1,1.6999706E1,4.0589558E1,3.2785545E1,-3.6388645E1,8.860742E0,1.9775757E1,4.661472E1,-1.7713902E1,-1.6185547E1,4.9074707E1,-1.1571442E1,-5.112946E1,3.2321205E1,4.6174326E0,2.1743507E1,-3.077692E0,4.1188797E1,1.136369E2,5.5078125E0,-5.0512127E1,1.4364258E1,5.585677E1,-2.3571207E1,1.6285238E1,-2.2795858E1,-7.094149E1,2.0051153E0,5.315971E1,-2.9657683E0,1.5220017E1,1.964765E1,4.1414536E1,-1.618319E1,2.2243559E1,4.3421646E1,-4.304187E1,-6.708252E0,2.7186035E1,-2.638496E1,-4.7512207E0,-6.61438E0,-2.4709278E1,1.9662876E1,-2.9146606E1,6.777969E1,1.3139784E1,6.5921247E-1,-4.77288E1,2.0000175E1,-6.0705288E1,1.5185498E1,2.893666E1,2.3498623E1,6.730487E1,-2.7835222E1,3.9991104E1,-3.8224022E1,3.497512E1,1.3028471E1,5.1236973E1],"categories":[],"categories_nodes":[],"categories_segments":[],"categories_sizes":[],"default_left":[1,1,1,1,1,1,1,1,1,1,1,0,1,1,1,1,1,1,1,1,0,1,0,0,0,1,0,1,0,1,1,1,1,1,1,1,1,1,0,0,0,0,0,0,0,0,0,0,0,0,0,0,0,0,0,0,0,0,0,0,0,0,0],"id":15,"left_children":[1,3,5,7,9,11,13,15,17,19,21,-1,23,25,27,29,31,33,35,37,-1,39,-1,-1,-1,41,-1,43,-1,45,47,49,51,53,55,57,59,61,-1,-1,-1,-1,-1,-1,-1,-1,-1,-1,-1,-1,-1,-1,-1,-1,-1,-1,-1,-1,-1,-1,-1,-1,-1],"loss_changes":[3.523947E4,3.5063312E4,1.8247605E4,2.8180469E4,2.4362E4,4.7827915E3,5.9932227E3,3.1806309E4,4.211372E4,1.7502516E4,5.609628E3,0E0,1.3929297E2,3.0580518E3,4.5576387E3,3.0848766E4,2.1994758E4,3.4683312E4,2.524854E4,1.2777273E4,0E0,1.5064836E3,0E0,0E0,0E0,1.9236792E2,0E0,2.233496E1,0E0,1.2124568E4,1.6077016E4,2.5993887E4,4.2588707E4,3.1890781E4,3.6454062E4,3.38404E4,2.1352906E4,1.28718125E4,0E0,0E0,0E0,0E0,0E0,0E0,0E0,0E0,0E0,0E0,0E0,0E0,0E0,0E0,0E0,0E0,0E0,0E0,0E0,0E0,0E0,0E0,0E0,0E0,0E0],"parents":[2147483647,0,0,1,1,2,2,3,3,4,4,5,5,6,6,7,7,8,8,9,9,10,10,12,12,13,13,14,14,15,15,16,16,17,17,18,18,19,19,21,21,25,25,27,27,29,29,30,30,31,31,32,32,33,33,34,34,35,35,36,36,37,37],"right_children":[2,4,6,8,10,12,14,16,18,20,22,-1,24,26,28,30,32,34,36,38,-1,40,-1,-1,-1,42,-1,44,-1,46,48,50,52,54,56,58,60,62,-1,-1,-1,-1,-1,-1,-1,-1,-1,-1,-1,-1,-1,-1,-1,-1,-1,-1,-1,-1,-1,-1,-1,-1,-1],"split_conditions":[3.65E2,1.5925E3,1.5E1,2.675E2,9.9055E3,6.6445E3,3E0,5.45E2,8.5E0,7.5E0,6.8E3,-4.8556643E0,8.5E0,6.7305E3,7.32E3,4.741E3,6.85E2,3.675E2,6.95E2,1.05E1,3.4091072E1,7.8E2,-1.5153639E1,4.3092775E0,1.6757032E1,6.09E3,4.8855715E0,6.6485E3,-2.1282448E1,7.105E3,5.1705E3,5.5615E3,7.011E3,6.5E0,7.1985E3,5.0615E3,6.697E3,1E0,-1.2912561E1,-2.0124757E0,8.155811E0,-7.9154882E0,-1.4253663E0,-1.9843141E0,-7.4127836E0,5.898863E0,-8.743982E0,2.0333908E1,3.9419353E0,1.9776376E-1,-1.4318641E1,6.000053E0,-1.8211588E1,4.5556498E0,8.680999E0,7.0495872E0,2.0191462E1,-8.350567E0,1.1997332E1,-1.1467207E1,1.0492537E1,3.9085414E0,1.5371093E1],"split_indices":[48,6,1,63,9,2,73,4,80,67,5,0,1,2,9,10,4,50,4,78,0,4,0,0,0,8,0,2,0,9,10,10,2,73,9,7,5,70,0,0,0,0,0,0,0,0,0,0,0,0,0,0,0,0,0,0,0,0,0,0,0,0,0],"split_type":[0,0,0,0,0,0,0,0,0,0,0,0,0,0,0,0,0,0,0,0,0,0,0,0,0,0,0,0,0,0,0,0,0,0,0,0,0,0,0,0,0,0,0,0,0,0,0,0,0,0,0,0,0,0,0,0,0,0,0,0,0,0,0],"sum_hessian":[1.341E3,1.32E3,2.1E1,1.254E3,6.6E1,4E0,1.7E1,3.2E2,9.34E2,6E1,6E0,1E0,3E0,7E0,1E1,4.8E1,2.72E2,8.6E2,7.4E1,5.7E1,3E0,4E0,2E0,1E0,2E0,5E0,2E0,5E0,5E0,2E1,2.8E1,1.59E2,1.13E2,7.79E2,8.1E1,4.9E1,2.5E1,5.6E1,1E0,3E0,1E0,4E0,1E0,1E0,4E0,1.3E1,7E0,2E1,8E0,1.48E2,1.1E1,1.07E2,6E0,5.28E2,2.51E2,4.9E1,3.2E1,4.1E1,8E0,4E0,2.1E1,1.2E1,4.4E1],"tree_param":{"num_deleted":"0","num_feature":"82","num_nodes":"63","size_leaf_vector":"0"}},{"base_weights":[1.2328572E1,-8.967089E0,1.3332243E1,1.4873535E1,-1.7774279E1,2.6678844E1,1.1113884E1,-1.5082086E1,4.317654E1,3.661724E-1,-2.9881474E1,2.837574E1,-5.592688E1,-8.722375E0,1.4275987E1,-3.5343098E1,1.9079956E1,-8.276978E0,5.0642853E1,-4.7491882E1,1.23078E1,-3.2829468E1,2.3383179E1,-3.591634E0,3.31119E1,-8.968693E1,2.2676636E1,-7.5063735E-1,-5.579398E1,1.7539585E1,2.2961562E-2,-7.4091797E0,-3.9448048E1,2.5698975E1,-3.885498E-1,2.0905367E1,-1.8711243E1,-2.0300367E1,-4.211867E1,1.5449924E1,-5.204255E1,-3.1243967E1,3.589443E1,-7.324435E0,4.376333E1,1.7480795E1,-7.8373665E1,1.50274E1,3.8816193E1,-4.595794E1,5.163541E0,2.502008E1,-1.4235596E1,1.052063E1,-2.3745504E1,-4.7393536E1,-6.979655E0,3.8650955E1,-3.7393963E1,-6.469326E1,-1.3610515E1,-4.676111E1,-7.9158325E0,8.2274574E1,3.0892849E1,-1.2335088E1,4.6520924E1,1.43464575E1,8.373793E1,2.3567677E1,-6.4768066E0,-8.536181E0,-9.920549E1,-6.7745624E0,1.710464E1,4.2195515E1,-3.6784668E1,-9.132761E1,-5.294434E-1,-5.092277E0,3.6314697E1],"categories":[],"categories_nodes":[],"categories_segments":[],"categories_sizes":[],"default_left":[1,1,1,1,1,1,1,1,1,1,1,1,1,1,1,1,1,0,0,0,1,1,0,1,1,0,0,1,1,1,1,0,0,0,0,1,0,1,1,1,1,1,1,1,1,1,1,1,1,1,1,0,0,0,0,0,0,0,0,0,0,0,0,0,0,0,0,0,0,0,0,0,0,0,0,0,0,0,0,0,0],"id":16,"left_children":[1,3,5,7,9,11,13,15,17,19,21,23,25,27,29,31,33,-1,-1,-1,35,37,-1,39,41,-1,-1,43,45,47,49,-1,-1,-1,-1,51,-1,53,55,57,59,61,63,65,67,69,71,73,75,77,79,-1,-1,-1,-1,-1,-1,-1,-1,-1,-1,-1,-1,-1,-1,-1,-1,-1,-1,-1,-1,-1,-1,-1,-1,-1,-1,-1,-1,-1,-1],"loss_changes":[2.8803266E4,1.3072469E4,3.7660375E4,1.5064373E4,9.89429E3,2.7098477E4,6.918397E4,6.9037637E3,3.8766816E3,1.1443079E4,5.0073027E3,2.7220016E4,1.2648432E4,5.6994977E4,4.4189953E4,3.9572607E2,5.2543506E2,0E0,0E0,0E0,4.6581787E3,2.1709941E3,0E0,2.2945996E4,2.9056703E4,0E0,0E0,3.8654523E4,3.77695E4,4.073417E4,4.2310895E4,0E0,0E0,0E0,0E0,2.2359102E3,0E0,1.6301904E3,2.2641602E3,2.35139E4,2.5228398E3,2.163749E3,3.2254406E4,3.1600883E4,1.878943E4,1.0276056E3,2.3885484E4,3.1500375E4,2.2246008E4,3.7051016E4,5.16213E4,0E0,0E0,0E0,0E0,0E0,0E0,0E0,0E0,0E0,0E0,0E0,0E0,0E0,0E0,0E0,0E0,0E0,0E0,0E0,0E0,0E0,0E0,0E0,0E0,0E0,0E0,0E0,0E0,0E0,0E0],"parents":[2147483647,0,0,1,1,2,2,3,3,4,4,5,5,6,6,7,7,8,8,9,9,10,10,11,11,12,12,13,13,14,14,15,15,16,16,20,20,21,21,23,23,24,24,27,27,28,28,29,29,30,30,35,35,37,37,38,38,39,39,40,40,41,41,42,42,43,43,44,44,45,45,46,46,47,47,48,48,49,49,50,50],"right_children":[2,4,6,8,10,12,14,16,18,20,22,24,26,28,30,32,34,-1,-1,-1,36,38,-1,40,42,-1,-1,44,46,48,50,-1,-1,-1,-1,52,-1,54,56,58,60,62,64,66,68,70,72,74,76,78,80,-1,-1,-1,-1,-1,-1,-1,-1,-1,-1,-1,-1,-1,-1,-1,-1,-1,-1,-1,-1,-1,-1,-1,-1,-1,-1,-1,-1,-1,-1],"split_conditions":[4.3965E3,4.9705E3,5.2785E3,4.8505E3,6.7035E3,4.9085E3,4.3715E3,2.5E2,6.6825E3,6.684E3,2.0125E3,4.076E3,6.9045E3,4.8865E3,7.5E1,5.263E3,6.999E3,-2.4830933E0,1.5192857E1,-1.4247565E1,4.0125E3,3.61E2,7.014954E0,4.553E3,4.5445E3,-2.690608E1,6.802991E0,1.525E3,6.6435E3,7.15E1,3.025E2,-2.222754E0,-1.18344145E1,7.7096925E0,-1.16564944E-1,1.0025E3,-5.613373E0,5.077E3,1E1,6.5E0,2.25E3,4.2095E3,4.132E3,1.0025E3,4.291E3,6.973E3,2.68E2,4.6905E3,5E2,1.518E3,7.35E2,7.5060244E0,-4.270679E0,3.1561892E0,-7.1236515E0,-1.4218061E1,-2.0938966E0,1.1595287E1,-1.1218189E1,-1.9407978E1,-4.0831547E0,-1.4028333E1,-2.37475E0,2.4682373E1,9.267855E0,-3.7005265E0,1.3956278E1,4.3039374E0,2.512138E1,7.0703034E0,-1.943042E0,-2.5608544E0,-2.9761648E1,-2.032369E0,5.131392E0,1.2658655E1,-1.10354E1,-2.7398283E1,-1.5883303E-1,-1.5276831E0,1.0894409E1],"split_indices":[10,8,8,8,5,7,7,13,2,2,13,7,2,10,55,3,2,0,0,0,19,63,0,10,3,0,0,6,5,70,55,0,0,0,0,13,0,8,64,73,54,7,7,14,7,2,63,10,56,6,4,0,0,0,0,0,0,0,0,0,0,0,0,0,0,0,0,0,0,0,0,0,0,0,0,0,0,0,0,0,0],"split_type":[0,0,0,0,0,0,0,0,0,0,0,0,0,0,0,0,0,0,0,0,0,0,0,0,0,0,0,0,0,0,0,0,0,0,0,0,0,0,0,0,0,0,0,0,0,0,0,0,0,0,0,0,0,0,0,0,0,0,0,0,0,0,0,0,0,0,0,0,0,0,0,0,0,0,0,0,0,0,0,0,0],"sum_hessian":[1.341E3,6E1,1.281E3,1.6E1,4.4E1,1.81E2,1.1E3,8E0,8E0,1.8E1,2.6E1,1.78E2,3E0,1.51E2,9.49E2,5E0,3E0,1E0,7E0,3E0,1.5E1,2.5E1,1E0,2.3E1,1.55E2,2E0,1E0,1.3E2,2.1E1,7.72E2,1.77E2,1E0,4E0,2E0,1E0,1.2E1,3E0,1.2E1,1.3E1,1.7E1,6E0,6E0,1.49E2,1.14E2,1.6E1,5E0,1.6E1,6.92E2,8E1,1.7E1,1.6E2,1.1E1,1E0,1E0,1.1E1,1.1E1,2E0,1.2E1,5E0,4E0,2E0,3E0,3E0,1.3E1,1.36E2,1.05E2,9E0,1E1,6E0,4E0,1E0,4E0,1.2E1,6E1,6.32E2,7.7E1,3E0,8E0,9E0,1.21E2,3.9E1],"tree_param":{"num_deleted":"0","num_feature":"82","num_nodes":"81","size_leaf_vector":"0"}},{"base_weights":[8.592531E0,9.544828E0,-1.156218E1,9.324001E0,1.0058276E2,1.4852576E1,-3.0318333E1,9.042432E0,7.931572E1,-2.0735216E1,3.182133E1,-4.6551563E1,4.3583843E1,1.2902536E1,4.518163E0,1.0403776E2,2.8155111E1,-3.8612514E1,2.7890219E1,7.32124E1,-1.1741166E0,-5.4076523E1,1.5879822E1,1.9204588E1,4.391609E0,-2.5415367E1,9.272776E0,-1.1681152E1,-4.704883E1,3.843994E-1,8.3561485E1,-2.2642618E1,2.0490072E1,-7.091481E1,-3.337563E1,3.283659E1,-1.749524E1,6.12097E0,2.660473E1,-1.179913E1,1.2798171E1,-1.0490139E1,-5.3292046E1,1.787897E0,1.7081131E1,-5.2962646E1,-1.1696777E1,3.2319416E1,9.759444E1,-1.3903809E0,-3.2921143E1,3.0623877E1,-1.5089478E1,-8.661218E1,-2.5337109E1,9.594727E0,-4.5967064E1],"categories":[],"categories_nodes":[],"categories_segments":[],"categories_sizes":[],"default_left":[1,1,1,1,0,1,1,1,1,1,1,1,0,1,1,0,0,1,0,1,1,1,1,1,1,1,1,0,1,0,1,1,1,1,1,0,0,0,0,0,0,0,0,0,0,0,0,0,0,0,0,0,0,0,0,0,0],"id":17,"left_children":[1,3,5,7,-1,9,11,13,15,17,19,21,-1,23,25,-1,-1,27,-1,29,31,33,35,37,39,41,43,-1,45,-1,47,49,51,53,55,-1,-1,-1,-1,-1,-1,-1,-1,-1,-1,-1,-1,-1,-1,-1,-1,-1,-1,-1,-1,-1,-1],"loss_changes":[2.5867734E4,2.4835023E4,3.0672098E4,2.4508438E4,0E0,1.6360714E4,4.521705E4,2.2225953E4,3.3947812E3,8.900533E3,2.4668863E4,1.4952539E4,0E0,3.6817445E4,8.406353E4,0E0,0E0,1.0408252E3,0E0,5.997508E3,5.5800234E3,7.0445E3,2.8382163E3,3.8081312E4,4.0166895E4,3.3142285E4,2.9717754E4,0E0,4.2583594E2,0E0,1.8793438E3,1.2648767E3,2.6254358E3,7.821797E3,8.0158584E3,0E0,0E0,0E0,0E0,0E0,0E0,0E0,0E0,0E0,0E0,0E0,0E0,0E0,0E0,0E0,0E0,0E0,0E0,0E0,0E0,0E0,0E0],"parents":[2147483647,0,0,1,1,2,2,3,3,5,5,6,6,7,7,8,8,9,9,10,10,11,11,13,13,14,14,17,17,19,19,20,20,21,21,22,22,23,23,24,24,25,25,26,26,28,28,30,30,31,31,32,32,33,33,34,34],"right_children":[2,4,6,8,-1,10,12,14,16,18,20,22,-1,24,26,-1,-1,28,-1,30,32,34,36,38,40,42,44,-1,46,-1,48,50,52,54,56,-1,-1,-1,-1,-1,-1,-1,-1,-1,-1,-1,-1,-1,-1,-1,-1,-1,-1,-1,-1,-1,-1],"split_conditions":[1.05E1,2.5E2,4.877E3,4.85E2,3.017483E1,6.7195E3,5.351E3,5.6505E3,7.001E3,4.815E3,5.0745E3,7.75E1,1.3075153E1,3.5E0,4.553E3,3.1211329E1,8.446534E0,4.4385E3,8.367066E0,4.269E3,5.539E3,6.9945E3,1.555E2,4.3165E3,5.2815E3,6.75E2,1.05E1,-3.504346E0,3.5E0,1.15319826E-1,4.45E1,5.386E3,6.6075E3,1.95E2,4.6745E3,9.850977E0,-5.248572E0,1.836291E0,7.9814196E0,-3.5397394E0,3.8394516E0,-3.1470418E0,-1.5987615E1,5.3636914E-1,5.1243396E0,-1.5888795E1,-3.5090334E0,9.695826E0,2.9278332E1,-4.171143E-1,-9.876343E0,9.187163E0,-4.5268435E0,-2.5983656E1,-7.601133E0,2.878418E0,-1.379012E1],"split_indices":[64,23,10,58,0,5,7,8,2,7,3,70,0,80,7,0,0,7,0,7,3,2,1,7,3,4,65,0,0,0,70,3,3,17,7,0,0,0,0,0,0,0,0,0,0,0,0,0,0,0,0,0,0,0,0,0,0],"split_type":[0,0,0,0,0,0,0,0,0,0,0,0,0,0,0,0,0,0,0,0,0,0,0,0,0,0,0,0,0,0,0,0,0,0,0,0,0,0,0,0,0,0,0,0,0,0,0,0,0,0,0,0,0,0,0,0,0],"sum_hessian":[1.341E3,1.281E3,6E1,1.279E3,2E0,2.5E1,3.5E1,1.275E3,4E0,8E0,1.7E1,2.9E1,6E0,6.87E2,5.88E2,2E0,2E0,6E0,2E0,7E0,1E1,2.6E1,3E0,3.94E2,2.93E2,8E1,5.08E2,2E0,4E0,1E0,6E0,5E0,5E0,1.3E1,1.3E1,2E0,1E0,1.43E2,2.51E2,1E2,1.93E2,5.3E1,2.7E1,2.6E2,2.48E2,3E0,1E0,2E0,4E0,2E0,3E0,4E0,1E0,9E0,4E0,3E0,1E1],"tree_param":{"num_deleted":"0","num_feature":"82","num_nodes":"57","size_leaf_vector":"0"}},{"base_weights":[6.058453E0,5.6462617E0,4.776279E1,5.9472237E0,-5.208517E1,7.9353375E0,8.076698E1,5.786719E0,1.0914758E2,1.608789E1,-8.2571976E1,-1.034021E1,2.422705E1,9.379551E1,3.213045E1,8.3131895E0,-5.047942E-1,-1.9582642E1,-7.3185223E-1,2.755306E1,7.1245117E0,8.966755E0,-2.3977064E1,-1.1542943E1,6.0555487E0,7.4035645E-1,-1.8381348E0,1.8411259E1,6.4385514E0,1.4253759E1,-3.51222E1,-3.7586117E0,-4.6128475E1,1.748321E0,3.718553E1],"categories":[],"categories_nodes":[],"categories_segments":[],"categories_sizes":[],"default_left":[1,1,1,1,1,1,1,1,0,0,0,1,1,0,0,1,1,0,1,0,0,1,1,1,1,0,0,0,0,0,0,0,0,0,0],"id":18,"left_children":[1,3,5,7,9,11,13,15,-1,-1,-1,17,19,-1,-1,21,23,-1,25,-1,-1,27,29,31,33,-1,-1,-1,-1,-1,-1,-1,-1,-1,-1],"loss_changes":[2.2799535E4,2.3418473E4,1.6447238E4,2.1299344E4,1.5877061E4,2.3346926E3,1.4219414E3,2.1033707E4,0E0,0E0,0E0,3.4088675E2,3.1230713E1,0E0,0E0,2.0136984E4,2.7587234E4,0E0,6.246911E0,0E0,0E0,2.1992133E4,8.596291E3,3.805661E4,3.1981047E4,0E0,0E0,0E0,0E0,0E0,0E0,0E0,0E0,0E0,0E0],"parents":[2147483647,0,0,1,1,2,2,3,3,4,4,5,5,6,6,7,7,11,11,12,12,15,15,16,16,18,18,21,21,22,22,23,23,24,24],"right_children":[2,4,6,8,10,12,14,16,-1,-1,-1,18,20,-1,-1,22,24,-1,26,-1,-1,28,30,32,34,-1,-1,-1,-1,-1,-1,-1,-1,-1,-1],"split_conditions":[1.4975E3,1.38E3,4.6445E3,1.5E2,4.625E3,6.632E3,5.2155E3,4.975E2,3.2744278E1,4.8263674E0,-2.4771593E1,3.25E1,1.04E2,2.8138655E1,9.639135E0,3.65E2,4.4595E3,-5.8747926E0,3.65E1,8.265919E0,2.1373537E0,4.9125E3,1.5E1,5.482E3,1.2125E3,2.2210695E-1,-5.514405E-1,5.523378E0,1.9315655E0,4.276128E0,-1.053666E1,-1.1275835E0,-1.3838543E1,5.244963E-1,1.115566E1],"split_indices":[53,53,7,29,10,5,7,13,0,0,0,1,1,0,0,48,7,0,1,0,0,3,1,8,13,0,0,0,0,0,0,0,0,0,0],"split_type":[0,0,0,0,0,0,0,0,0,0,0,0,0,0,0,0,0,0,0,0,0,0,0,0,0,0,0,0,0,0,0,0,0,0,0],"sum_hessian":[1.341E3,1.329E3,1.2E1,1.323E3,6E0,6E0,6E0,1.322E3,1E0,2E0,4E0,3E0,3E0,4E0,2E0,9.43E2,3.79E2,1E0,2E0,2E0,1E0,9.25E2,1.8E1,1.41E2,2.38E2,1E0,1E0,1.94E2,7.31E2,4E0,1.4E1,1.16E2,2.5E1,2.1E2,2.8E1],"tree_param":{"num_deleted":"0","num_feature":"82","num_nodes":"35","size_leaf_vector":"0"}},{"base_weights":[4.280146E0,3.6279051E0,2.656683E1,3.2480247E0,4.428935E1,4.6372826E1,-3.5647125E0,2.8036625E0,3.6462547E1,8.267446E1,1.4762482E1,1.9568949E1,1.0484326E2,2.6945383E1,-2.4565308E1,3.148871E0,-4.6220596E1,6.3648415E1,-2.0776062E0,-3.6547039E0,4.6676025E1,-1.2876587E1,5.767975E1,1.3814697E1,1.1771224E2,4.1530323E1,-6.344645E0,1.5179037E0,-3.1275848E1,2.0078495E0,1.6774067E1,9.139526E0,-5.428305E1,3.6825336E1,9.46767E1,6.8076577E0,-1.91556E1,1.23811035E1,-9.338086E0,3.1482056E1,-3.638487E1,8.543884E0,8.545249E1,-1.5608765E1,6.091797E0,5.392456E0,-3.1156006E0,1.331742E1,2.4710155E-1,2.6316366E1,-1.0662927E1,-6.618706E1,-2.5832275E1,4.044861E1,7.5428467E0,-3.151123E0,9.429639E0,-7.2888184E-1,-1.13081665E1,-1.2563965E1,-4.340044E1,1.6692953E1,-7.95166E0],"categories":[],"categories_nodes":[],"categories_segments":[],"categories_sizes":[],"default_left":[1,1,1,1,1,1,1,1,1,0,1,1,1,1,1,1,1,1,1,1,0,1,1,0,0,0,1,1,0,1,1,0,1,1,0,1,0,0,1,0,1,1,0,0,0,0,0,0,0,0,0,0,0,0,0,0,0,0,0,0,0,0,0],"id":19,"left_children":[1,3,5,7,9,11,13,15,17,-1,19,21,23,25,27,29,31,33,35,37,-1,39,41,-1,-1,-1,43,45,-1,47,49,-1,51,53,-1,55,-1,-1,57,-1,59,61,-1,-1,-1,-1,-1,-1,-1,-1,-1,-1,-1,-1,-1,-1,-1,-1,-1,-1,-1,-1,-1],"loss_changes":[1.9411312E4,2.0013807E4,2.2843145E4,1.8996277E4,1.2380227E4,3.399472E4,1.09136045E4,2.1773883E4,1.7943943E4,0E0,4.872648E3,2.1763648E4,6.573953E3,3.662226E3,1.7977983E3,1.9710557E4,4.51317E3,4.8362383E3,1.3443445E3,6.624415E2,0E0,1.1573427E4,1.0187006E4,0E0,0E0,0E0,4.4072348E2,7.0659004E1,0E0,2.3355012E4,2.5938186E4,0E0,9.9966406E2,4.3759277E2,0E0,1.8638437E2,0E0,0E0,7.656177E1,0E0,6.245381E2,6.7042993E2,0E0,0E0,0E0,0E0,0E0,0E0,0E0,0E0,0E0,0E0,0E0,0E0,0E0,0E0,0E0,0E0,0E0,0E0,0E0,0E0,0E0],"parents":[2147483647,0,0,1,1,2,2,3,3,4,4,5,5,6,6,7,7,8,8,10,10,11,11,12,12,13,13,14,14,15,15,16,16,17,17,18,18,19,19,21,21,22,22,26,26,27,27,29,29,30,30,32,32,33,33,35,35,38,38,40,40,41,41],"right_children":[2,4,6,8,10,12,14,16,18,-1,20,22,24,26,28,30,32,34,36,38,-1,40,42,-1,-1,-1,44,46,-1,48,50,-1,52,54,-1,56,-1,-1,58,-1,60,62,-1,-1,-1,-1,-1,-1,-1,-1,-1,-1,-1,-1,-1,-1,-1,-1,-1,-1,-1,-1,-1],"split_conditions":[1.35E1,8.42E2,4.9345E3,7.492E3,1.512E3,4.6935E3,6.771E3,2.35E1,5.8325E3,2.480234E1,4.825E2,4.7685E3,4.9255E3,1.5E0,1.5E0,3E0,5.3E1,5.5705E3,7.2685E3,2.75E1,1.4002809E1,5.3145E3,6.9965E3,4.144409E0,3.5313675E1,1.2459098E1,7.3E1,1.065E2,-9.382755E0,5.22E3,3.9975E3,2.741858E0,1.5155E3,5.3E3,2.840301E1,9.057E3,-5.7466803E0,3.7143312E0,6.874E3,9.444617E0,5.677E3,2.02E2,2.5635748E1,-4.6826296E0,1.8275391E0,1.6177369E0,-9.346802E-1,3.9952261E0,7.413047E-2,7.8949103E0,-3.198878E0,-1.9856117E1,-7.749683E0,1.2134583E1,2.262854E0,-9.4533694E-1,2.8288918E0,-2.1866456E-1,-3.39245E0,-3.7691896E0,-1.3020133E1,5.007886E0,-2.385498E0],"split_indices":[73,22,10,8,6,7,5,72,10,0,55,10,3,64,80,71,1,3,10,1,0,3,2,0,0,0,1,1,0,8,19,0,6,3,0,9,0,0,2,0,3,1,0,0,0,0,0,0,0,0,0,0,0,0,0,0,0,0,0,0,0,0,0],"split_type":[0,0,0,0,0,0,0,0,0,0,0,0,0,0,0,0,0,0,0,0,0,0,0,0,0,0,0,0,0,0,0,0,0,0,0,0,0,0,0,0,0,0,0,0,0,0,0,0,0,0,0,0,0,0,0,0,0,0,0,0,0,0,0],"sum_hessian":[1.341E3,1.304E3,3.7E1,1.293E3,1.1E1,2.2E1,1.5E1,1.277E3,1.6E1,4E0,7E0,1.6E1,6E0,6E0,9E0,1.269E3,8E0,9E0,7E0,5E0,2E0,9E0,7E0,1E0,5E0,4E0,2E0,2E0,7E0,1.172E3,9.7E1,1E0,7E0,6E0,3E0,5E0,2E0,1E0,4E0,3E0,6E0,3E0,4E0,1E0,1E0,1E0,1E0,1.57E2,1.015E3,7.2E1,2.5E1,4E0,3E0,5E0,1E0,1E0,4E0,1E0,3E0,2E0,4E0,2E0,1E0],"tree_param":{"num_deleted":"0","num_feature":"82","num_nodes":"63","size_leaf_vector":"0"}},{"base_weights":[3.0877159E0,-8.591449E0,4.2311435E0,5.6335583E0,-1.992815E1,8.043388E0,-1.3597906E-1,-3.0648388E1,1.3571023E1,-2.1966879E1,5.7313965E1,-2.9063601E0,1.0823183E1,-1.7929897E1,3.363528E0,-4.2729187E1,-1.9366734E1,-2.7472342E1,2.0589806E1,-7.0335426E0,-2.9273693E1,2.279701E0,-4.3855354E1,3.1230661E1,6.7730308E0,-5.9962727E1,-7.871186E0,2.2915895E0,4.8663864E1,2.0121216E1,-3.8758137E1,2.6296171E1,-2.3472706E1,-3.590498E1,9.343904E-1,-3.0654774E1,1.50563965E1,-1.348833E0,4.677832E1,1.4773926E1,-5.9743835E1,-4.0276806E1,4.011175E1,1.0971825E1,-7.2622914E0,-7.1512694E0,-7.454091E1,4.820391E1,-1.5071254E1,1.2587239E1,-3.148759E0,7.056429E1,-3.325871E1,-1.0388794E1,-4.2354248E1,1.7488703E1,5.9027657E1,-3.541107E1,1.2140381E1,-5.6746746E1,-3.0948894E0,-1.6132385E1,1.2234375E1,-1.8355116E1,-3.799089E1,1.2168047E1,-1.3468253E1,8.274231E0,6.465133E1,-4.6264648E-1,3.0241821E1,-8.351332E1,-2.205546E1,-7.5926414E1,-3.8559978E0,5.188386E1,8.32312E0,2.1203961E0,1.8360611E1,-1.5343382E1,1.5454156E1,-1.5735921E1,3.8171387E0,-3.831134E1,-1.0529743E2,2.5308563E1,1.1568335E2,-2.6741196E1,1.287629E1,9.2019775E1,7.8633432E0,-3.841283E1,-4.2512822E-1,8.452515E0,7.72717E1,-4.0422363E1,-9.465698E0],"categories":[],"categories_nodes":[],"categories_segments":[],"categories_sizes":[],"default_left":[1,1,1,1,1,1,1,1,1,1,0,1,1,1,1,0,0,1,1,1,1,1,1,1,1,1,1,1,1,0,1,1,1,1,1,1,0,1,1,1,1,1,1,1,1,1,1,1,1,1,1,1,1,0,0,0,0,0,0,0,0,0,0,0,0,0,0,0,0,0,0,0,0,0,0,0,0,0,0,0,0,0,0,0,0,0,0,0,0,0,0,0,0,0,0,0,0],"id":20,"left_children":[1,3,5,7,9,11,13,15,17,19,-1,21,23,25,27,-1,-1,29,31,33,35,37,39,41,43,45,47,49,51,-1,53,55,57,59,61,63,-1,65,67,69,71,73,75,77,79,81,83,85,87,89,91,93,95,-1,-1,-1,-1,-1,-1,-1,-1,-1,-1,-1,-1,-1,-1,-1,-1,-1,-1,-1,-1,-1,-1,-1,-1,-1,-1,-1,-1,-1,-1,-1,-1,-1,-1,-1,-1,-1,-1,-1,-1,-1,-1,-1,-1],"loss_changes":[1.7957797E4,1.9464023E4,2.0362256E4,1.5967211E4,1.1809881E4,1.9907508E4,3.5616445E4,5.3538965E2,1.3529003E4,6.995699E3,0E0,2.8344387E4,4.2850895E4,3.927086E4,2.3099766E4,0E0,0E0,4.539779E3,1.0423273E4,5.3246E3,3.1553867E3,1.92774E4,1.4855604E4,5.623111E4,2.577378E4,1.3325055E4,3.181482E4,2.6253215E4,2.208241E4,0E0,1.7210742E2,9.057537E3,2.5557144E3,3.243476E3,3.8616013E3,3.1826367E3,0E0,1.8347543E4,5.658715E3,9.56702E2,8.908074E3,1.2691105E4,2.838304E4,2.193591E4,1.877806E4,5.308661E2,1.1566055E4,1.0976908E4,2.284842E4,6.006385E4,2.9469885E4,3.0963438E3,1.2870898E2,0E0,0E0,0E0,0E0,0E0,0E0,0E0,0E0,0E0,0E0,0E0,0E0,0E0,0E0,0E0,0E0,0E0,0E0,0E0,0E0,0E0,0E0,0E0,0E0,0E0,0E0,0E0,0E0,0E0,0E0,0E0,0E0,0E0,0E0,0E0,0E0,0E0,0E0,0E0,0E0,0E0,0E0,0E0,0E0],"parents":[2147483647,0,0,1,1,2,2,3,3,4,4,5,5,6,6,7,7,8,8,9,9,11,11,12,12,13,13,14,14,17,17,18,18,19,19,20,20,21,21,22,22,23,23,24,24,25,25,26,26,27,27,28,28,30,30,31,31,32,32,33,33,34,34,35,35,37,37,38,38,39,39,40,40,41,41,42,42,43,43,44,44,45,45,46,46,47,47,48,48,49,49,50,50,51,51,52,52],"right_children":[2,4,6,8,10,12,14,16,18,20,-1,22,24,26,28,-1,-1,30,32,34,36,38,40,42,44,46,48,50,52,-1,54,56,58,60,62,64,-1,66,68,70,72,74,76,78,80,82,84,86,88,90,92,94,96,-1,-1,-1,-1,-1,-1,-1,-1,-1,-1,-1,-1,-1,-1,-1,-1,-1,-1,-1,-1,-1,-1,-1,-1,-1,-1,-1,-1,-1,-1,-1,-1,-1,-1,-1,-1,-1,-1,-1,-1,-1,-1,-1,-1],"split_conditions":[4.4675E3,5.092E3,5.679E3,4.265E3,2.15E2,2.38E2,4.608E3,3E0,6.63E3,6.7035E3,1.7194191E1,1.05E1,6.5E0,5.718E3,9.5E0,-1.2818757E1,-5.8100204E0,4.324E3,8.5E2,6.685E3,1.945E2,4.949E3,4.2585E3,4.152E3,5.5E0,1E0,5.7425E3,5.178E3,8.654E3,6.036365E0,1.65E1,4.5E0,8.85E1,3.81E2,6.891E3,2.5E0,4.516919E0,4.7705E3,5.199E3,3.55E1,6.6E2,4E0,4.22E2,5.3725E3,1.5205E3,6.5645E3,5.6315E3,5E0,6.275E3,4.6755E3,8.5E0,1.95E1,2.5E0,-3.1166384E0,-1.2706275E1,5.246611E0,1.7708298E1,-1.0623322E1,3.6421144E0,-1.7024025E1,-9.2846686E-1,-4.839716E0,3.6703126E0,-5.506535E0,-1.1397267E1,3.6504142E0,-4.0404763E0,2.4822693E0,1.93954E1,-1.3879395E-1,9.072547E0,-2.5053997E1,-6.616638E0,-2.2777925E1,-1.1567994E0,1.5565159E1,2.496936E0,6.361189E-1,5.5081835E0,-4.603015E0,4.636247E0,-4.7207766E0,1.1451416E0,-1.14934025E1,-3.1589231E1,7.5925694E0,3.4705006E1,-8.022359E0,3.8628871E0,2.7605934E1,2.359003E0,-1.15238495E1,-1.2753847E-1,2.5357544E0,2.318151E1,-1.212671E1,-2.8397095E0],"split_indices":[10,8,8,10,60,63,7,80,5,5,0,80,65,8,78,0,0,10,14,2,1,7,7,7,64,72,8,3,9,0,1,64,1,63,9,72,0,10,3,1,4,73,63,3,6,2,3,79,3,7,1,1,0,0,0,0,0,0,0,0,0,0,0,0,0,0,0,0,0,0,0,0,0,0,0,0,0,0,0,0,0,0,0,0,0,0,0,0,0,0,0,0,0,0,0,0,0],"split_type":[0,0,0,0,0,0,0,0,0,0,0,0,0,0,0,0,0,0,0,0,0,0,0,0,0,0,0,0,0,0,0,0,0,0,0,0,0,0,0,0,0,0,0,0,0,0,0,0,0,0,0,0,0,0,0,0,0,0,0,0,0,0,0,0,0,0,0,0,0,0,0,0,0,0,0,0,0,0,0,0,0,0,0,0,0,0,0,0,0,0,0,0,0,0,0,0,0],"sum_hessian":[1.341E3,1.19E2,1.222E3,5.3E1,6.6E1,6.52E2,5.7E2,9E0,4.4E1,6.5E1,1E0,1.32E2,5.2E2,9.3E1,4.77E2,3E0,6E0,6E0,3.8E1,2.2E1,4.3E1,1.18E2,1.4E1,8.5E1,4.35E2,1.7E1,7.6E1,4.67E2,1E1,1E0,5E0,3.4E1,4E0,4E0,1.8E1,4.2E1,1E0,1.1E2,8E0,3E0,1.1E1,9E0,7.6E1,3.35E2,1E2,4E0,1.3E1,8E0,6.8E1,1.61E2,3.06E2,8E0,2E0,1E0,4E0,2.8E1,6E0,3E0,1E0,2E0,2E0,7E0,1.1E1,1.7E1,2.5E1,5.2E1,5.8E1,3E0,5E0,2E0,1E0,6E0,5E0,4E0,5E0,5.5E1,2.1E1,1.53E2,1.82E2,7.4E1,2.6E1,2E0,2E0,7E0,6E0,7E0,1E0,4.8E1,2E1,8E0,1.53E2,2.1E1,2.85E2,1E0,7E0,1E0,1E0],"tree_param":{"num_deleted":"0","num_feature":"82","num_nodes":"97","size_leaf_vector":"0"}},{"base_weights":[2.1560423E0,1.9393551E0,5.971035E1,1.8061997E0,8.998413E1,2.8668213E1,9.193945E1,1.5592601E0,4.8501953E1,1.2197642E0,3.1263054E1,6.50438E1,4.7648926E0,8.986457E-1,3.336129E1,1.2045805E1,1.0411678E2,1.1030273E0,6.0443115E0,1.1450531E0,-4.4955914E1,6.7027764E0,5.5253906E1,2.223761E1,-5.512793E1],"categories":[],"categories_nodes":[],"categories_segments":[],"categories_sizes":[],"default_left":[1,1,1,1,0,0,0,1,1,1,1,0,1,1,1,1,0,0,0,0,0,0,0,0,0],"id":21,"left_children":[1,3,5,7,-1,-1,-1,9,11,13,15,-1,17,19,21,23,-1,-1,-1,-1,-1,-1,-1,-1,-1],"loss_changes":[1.6620666E4,1.5523709E4,2.3665625E3,1.5341355E4,0E0,0E0,0E0,1.3384093E4,4.7545156E3,1.356309E4,1.9746553E4,0E0,7.3881454E0,1.4796549E4,7.2167656E3,1.0125994E4,0E0,0E0,0E0,0E0,0E0,0E0,0E0,0E0,0E0],"parents":[2147483647,0,0,1,1,2,2,3,3,7,7,8,8,9,9,10,10,12,12,13,13,14,14,15,15],"right_children":[2,4,6,8,-1,-1,-1,10,12,14,16,-1,18,20,22,24,-1,-1,-1,-1,-1,-1,-1,-1,-1],"split_conditions":[4.85E2,1.5E2,3E1,1.45E2,2.6995241E1,8.600464E0,2.7581837E1,1.1175E3,5.025E2,1.4975E3,4.795E3,1.9513142E1,3.45E1,1.38E3,4.6445E3,6.813E3,3.1235037E1,3.309082E-1,1.8132936E0,3.4351596E-1,-1.3486774E1,2.010833E0,1.6576172E1,6.6712832E0,-1.653838E1],"split_indices":[58,29,1,60,0,0,0,55,60,53,7,0,1,53,7,3,0,0,0,0,0,0,0,0,0],"split_type":[0,0,0,0,0,0,0,0,0,0,0,0,0,0,0,0,0,0,0,0,0,0,0,0,0],"sum_hessian":[1.341E3,1.337E3,4E0,1.336E3,1E0,3E0,1E0,1.33E3,6E0,1.316E3,1.4E1,4E0,2E0,1.304E3,1.2E1,1.2E1,2E0,1E0,1E0,1.298E3,6E0,6E0,6E0,1.1E1,1E0],"tree_param":{"num_deleted":"0","num_feature":"82","num_nodes":"25","size_leaf_vector":"0"}},{"base_weights":[1.5924329E0,1.9145495E0,-2.9099382E1,1.5863125E0,4.10991E1,-5.050946E1,-4.7366768E-1,1.0593433E0,1.9322844E1,7.396735E1,1.9527588E1,-1.5121094E1,-6.871826E1,-1.0981323E1,1.0152405E1,2.9476544E-1,1.6358603E1,3.397823E1,-2.95195E0,1.9614624E1,8.5546715E1,3.0304296E1,1.1748047E0,-2.786499E0,-1.8303793E1,1.2191081E1,2.0181885E0,6.6754884E-1,-5.0022324E1,4.8249878E1,1.1331032E1,1.37055235E1,7.835791E1,1.9167166E1,-1.8140137E1,5.3269043E0,-5.640747E0,9.402999E-1,-4.649686E1,-3.9714763E0,-1.0659302E2,-1.5237793E1,7.1952065E1,2.0701178E1,-1.4411426E1,-6.023824E0,5.0879963E1,9.67393E1,2.1602945E1,-1.4687622E1,2.7257568E1,3.173828E-1,-2.279419E1,1.6870117E0,6.3033447E0],"categories":[],"categories_nodes":[],"categories_segments":[],"categories_sizes":[],"default_left":[1,1,1,1,1,1,1,1,1,1,1,1,0,0,1,1,1,1,1,0,0,0,1,0,0,0,0,1,1,1,1,1,1,1,1,1,0,0,0,0,0,0,0,0,0,0,0,0,0,0,0,0,0,0,0],"id":22,"left_children":[1,3,5,7,9,11,13,15,17,19,21,23,-1,-1,25,27,29,31,33,-1,-1,-1,35,-1,-1,-1,-1,37,39,41,43,45,47,49,51,53,-1,-1,-1,-1,-1,-1,-1,-1,-1,-1,-1,-1,-1,-1,-1,-1,-1,-1,-1],"loss_changes":[1.3323185E4,1.7028162E4,8.556378E3,1.2307703E4,6.354791E3,4.1159414E3,8.930726E2,1.4991341E4,1.250524E4,8.395117E2,1.5466589E3,1.06025696E2,0E0,0E0,4.172824E1,2.2954906E4,9.233754E3,1.961908E4,5.7228833E3,0E0,0E0,0E0,1.4324312E2,0E0,0E0,0E0,0E0,1.5660792E4,2.3022824E4,1.3134764E4,1.3323705E4,1.277476E4,5.212793E3,2.3176409E3,8.662571E2,2.86026E-2,0E0,0E0,0E0,0E0,0E0,0E0,0E0,0E0,0E0,0E0,0E0,0E0,0E0,0E0,0E0,0E0,0E0,0E0,0E0],"parents":[2147483647,0,0,1,1,2,2,3,3,4,4,5,5,6,6,7,7,8,8,9,9,10,10,11,11,14,14,15,15,16,16,17,17,18,18,22,22,27,27,28,28,29,29,30,30,31,31,32,32,33,33,34,34,35,35],"right_children":[2,4,6,8,10,12,14,16,18,20,22,24,-1,-1,26,28,30,32,34,-1,-1,-1,36,-1,-1,-1,-1,38,40,42,44,46,48,50,52,54,-1,-1,-1,-1,-1,-1,-1,-1,-1,-1,-1,-1,-1,-1,-1,-1,-1,-1,-1],"split_conditions":[6.2255E3,7.51E3,5.05E2,1.35E1,5.107E3,6.25E2,1.5E0,6.5E0,4.9345E3,5.3365E3,9.802E3,1.5E0,-2.0615479E1,-3.294397E0,5E0,7.035E3,5.35E2,4.6935E3,6.771E3,5.8843875E0,2.5664015E1,9.0912895E0,1.5E0,-8.359497E-1,-5.491138E0,3.6573246E0,6.054566E-1,7.093E3,1.5E0,2E0,4.95E1,4.794E3,1.23E2,5.6E1,1.5E0,8.8E1,-1.6922241E0,2.8208998E-1,-1.3949059E1,-1.191443E0,-3.1977907E1,-4.571338E0,2.158562E1,6.2103534E0,-4.3234277E0,-1.8071474E0,1.5263989E1,2.9021791E1,6.480884E0,-4.4062867E0,8.177271E0,9.521485E-2,-6.8382573E0,5.061035E-1,1.8910035E0],"split_indices":[10,8,14,73,10,4,0,0,10,3,9,0,0,0,0,5,4,7,5,0,0,0,0,0,0,0,0,8,0,73,70,10,1,1,80,1,0,0,0,0,0,0,0,0,0,0,0,0,0,0,0,0,0,0,0],"split_type":[0,0,0,0,0,0,0,0,0,0,0,0,0,0,0,0,0,0,0,0,0,0,0,0,0,0,0,0,0,0,0,0,0,0,0,0,0,0,0,0,0,0,0,0,0,0,0,0,0,0,0,0,0,0,0],"sum_hessian":[1.341E3,1.328E3,1.3E1,1.318E3,1E1,7E0,6E0,1.281E3,3.7E1,3E0,7E0,3E0,4E0,3E0,3E0,1.221E3,6E1,2.2E1,1.5E1,1E0,2E0,4E0,3E0,1E0,2E0,2E0,1E0,1.213E3,8E0,7E0,5.3E1,1.6E1,6E0,6E0,9E0,2E0,1E0,1.207E3,6E0,5E0,3E0,2E0,5E0,3.9E1,1.4E1,1.1E1,5E0,4E0,2E0,1E0,5E0,2E0,7E0,1E0,1E0],"tree_param":{"num_deleted":"0","num_feature":"82","num_nodes":"55","size_leaf_vector":"0"}},{"base_weights":[1.1397032E0,9.607185E-1,4.8808056E1,8.47233E-1,7.634546E1,2.2006287E1,7.800757E1,1.1460009E1,5.3790946E-2,2.5777182E1,5.3468018E0,5.3707153E1,7.3967853E0,-1.5678218E-1,4.3563274E1,-1.7546387E0,7.2486855E1,1.355926E1,-2.0411499E1,-1.1693311E-2,-5.9977863E1,6.1949036E1,4.527832E0,5.5388184E0,-8.170776E0,-4.045953E-2,2.6782335E1,-3.5174877E1,3.5949707E0,-2.2779667E-1,3.802417E1,2.8050781E1,8.18219E1,1.43396E0,5.357788E0],"categories":[],"categories_nodes":[],"categories_segments":[],"categories_sizes":[],"default_left":[1,1,1,1,0,1,0,1,1,0,0,1,1,1,1,1,0,1,1,1,0,1,1,0,0,0,0,0,0,0,0,0,0,0,0],"id":23,"left_children":[1,3,5,7,-1,9,-1,11,13,-1,-1,15,17,19,21,23,-1,25,27,29,-1,31,33,-1,-1,-1,-1,-1,-1,-1,-1,-1,-1,-1,-1],"loss_changes":[1.1402924E4,1.1382014E4,2.196336E3,1.1257756E4,0E0,1.1345911E2,0E0,1.5567079E4,1.141343E4,0E0,0E0,8.459639E3,1.5014402E4,1.0761721E4,4.0256846E3,1.8564392E2,0E0,1.27690205E4,5.7971187E3,1.0184623E4,0E0,3.9945312E2,2.048111E-2,0E0,0E0,0E0,0E0,0E0,0E0,0E0,0E0,0E0,0E0,0E0,0E0],"parents":[2147483647,0,0,1,1,2,2,3,3,5,5,7,7,8,8,11,11,12,12,13,13,14,14,15,15,17,17,18,18,19,19,21,21,22,22],"right_children":[2,4,6,8,-1,10,-1,12,14,-1,-1,16,18,20,22,24,-1,26,28,30,-1,32,34,-1,-1,-1,-1,-1,-1,-1,-1,-1,-1,-1,-1],"split_conditions":[4.85E2,1.5E2,3E1,2.6E2,2.2903639E1,5.247E3,2.3402271E1,1.5035E3,8.3655E3,7.733155E0,1.6040406E0,5.25E1,6.95E2,1.005E3,6.884E3,3.4E1,2.1746058E1,6.753E3,4.49E3,3.45E2,-1.799336E1,1.255E2,8.8E1,1.6616455E0,-2.451233E0,-1.2137859E-2,8.034701E0,-1.0552464E1,1.0784912E0,-6.8339005E-2,1.1407251E1,8.415235E0,2.4546572E1,4.30188E-1,1.6073365E0],"split_indices":[58,29,1,4,0,3,0,6,8,0,0,1,13,56,2,1,0,5,19,44,0,1,1,0,0,0,0,0,0,0,0,0,0,0,0],"split_type":[0,0,0,0,0,0,0,0,0,0,0,0,0,0,0,0,0,0,0,0,0,0,0,0,0,0,0,0,0,0,0,0,0,0,0],"sum_hessian":[1.341E3,1.337E3,4E0,1.336E3,1E0,3E0,1E0,9.2E1,1.244E3,2E0,1E0,7E0,8.5E1,1.239E3,5E0,2E0,5E0,7E1,1.5E1,1.237E3,2E0,3E0,2E0,1E0,1E0,3.5E1,3.5E1,9E0,6E0,1.231E3,6E0,2E0,1E0,1E0,1E0],"tree_param":{"num_deleted":"0","num_feature":"82","num_nodes":"35","size_leaf_vector":"0"}},{"base_weights":[8.7493217E-1,1.2683707E0,-1.990215E1,5.8115854E0,-8.7788826E-1,-4.4818563E0,-5.8914062E1,1.1707101E1,-2.1354966E0,-3.8212326E0,1.2282778E1,3.6615234E1,-1.4476013E1,-1.1482422E1,-7.559023E1,1.7228318E0,2.0372482E1,-2.4188164E1,3.8938005E0,-6.7742667E0,6.22782E0,8.739789E0,1.2320186E2,4.9585205E1,-1.1473389E0,1.5289714E1,-1.9820383E1,-2.1082153E1,-8.394672E1,1.6022572E1,-1.1413977E1,2.8582205E1,7.5082397E0,6.889382E0,-3.5142124E1,-3.3848736E0,3.0300135E1,-3.8471851E0,-2.0917372E1,1.513297E1,-1.1963023E0,1.9814945E0,3.1152996E1,-2.7069555E1,-1.357959E0,-2.541565E1,2.6959755E1,-1.813832E1,2.0188854E1,2.4241804E1,8.797178E1,2.9750774E0,4.9524952E1,1.7958687E1,-2.861499E1,-7.440095E1,-2.1665867E1,3.0811164E0,-3.553667E1,4.5555767E1,-1.9254272E1,-5.6454062E0,2.8458897E1,-3.8717213E1,-1.1576005E0,2.7114586E1,-1.5508933E1,-9.6139145E0,1.0489527E1,-2.7870142E1,7.313566E0,1.3181966E1,5.1519978E1,-7.5440674E0,-2.8400826E1,-1.1959798E1,9.696533E0],"categories":[],"categories_nodes":[],"categories_segments":[],"categories_sizes":[],"default_left":[1,1,1,1,1,1,1,1,1,1,1,1,1,0,1,1,1,1,1,1,1,1,0,0,0,0,1,0,0,1,1,1,1,1,1,1,1,1,1,1,1,1,1,1,1,0,0,0,0,0,0,0,0,0,0,0,0,0,0,0,0,0,0,0,0,0,0,0,0,0,0,0,0,0,0,0,0],"id":24,"left_children":[1,3,5,7,9,11,13,15,17,19,21,23,25,-1,27,29,31,33,35,37,39,41,-1,-1,-1,-1,43,-1,-1,45,47,49,51,53,55,57,59,61,63,65,67,69,71,73,75,-1,-1,-1,-1,-1,-1,-1,-1,-1,-1,-1,-1,-1,-1,-1,-1,-1,-1,-1,-1,-1,-1,-1,-1,-1,-1,-1,-1,-1,-1,-1,-1],"loss_changes":[1.099543E4,1.2856808E4,1.4775333E4,1.9843459E4,3.4754723E4,8.333928E3,4.6688887E3,2.0988648E4,2.4160322E4,2.1794107E4,6.337278E4,2.0160088E3,2.8483125E3,0E0,5.0770117E2,2.159812E4,1.3514941E4,1.3518572E4,2.7587607E4,2.3392205E4,1.1058961E4,2.4174277E4,0E0,0E0,0E0,0E0,1.8369629E3,0E0,0E0,2.561216E4,1.3116689E4,1.8231598E4,9.757025E3,4.836983E3,1.3730836E4,2.3601424E4,2.4312635E4,2.7522691E4,3.4072098E4,2.8323125E4,9.150589E3,1.9941045E4,1.2863441E4,4.567871E1,7.019583E2,0E0,0E0,0E0,0E0,0E0,0E0,0E0,0E0,0E0,0E0,0E0,0E0,0E0,0E0,0E0,0E0,0E0,0E0,0E0,0E0,0E0,0E0,0E0,0E0,0E0,0E0,0E0,0E0,0E0,0E0,0E0,0E0],"parents":[2147483647,0,0,1,1,2,2,3,3,4,4,5,5,6,6,7,7,8,8,9,9,10,10,11,11,12,12,14,14,15,15,16,16,17,17,18,18,19,19,20,20,21,21,26,26,29,29,30,30,31,31,32,32,33,33,34,34,35,35,36,36,37,37,38,38,39,39,40,40,41,41,42,42,43,43,44,44],"right_children":[2,4,6,8,10,12,14,16,18,20,22,24,26,-1,28,30,32,34,36,38,40,42,-1,-1,-1,-1,44,-1,-1,46,48,50,52,54,56,58,60,62,64,66,68,70,72,74,76,-1,-1,-1,-1,-1,-1,-1,-1,-1,-1,-1,-1,-1,-1,-1,-1,-1,-1,-1,-1,-1,-1,-1,-1,-1,-1,-1,-1,-1,-1,-1,-1],"split_conditions":[3.35E2,5E-1,7.5E0,5.666E3,7.55E2,9.5E0,1.5E0,6.6925E3,1.5E0,1.5215E3,6.991E3,6.697E3,3.725E2,-3.4447267E0,2.35E1,3.415E2,6.45E2,6.837E3,3.55E1,6.832E3,6.7595E3,1.27E3,3.696056E1,1.4875562E1,-3.4420168E-1,4.5869145E0,6.718E3,-6.3246465E0,-2.5184015E1,5.45E2,6.7725E3,6.05E2,5.465E2,1.2025E3,6.9815E3,2.8E1,6.086E3,6.8155E3,6.8845E3,7.5E0,1.5295E3,3.25E1,6.8425E3,3.85E2,4.833E3,-7.6246953E0,8.087927E0,-5.4414964E0,6.0566564E0,7.2725415E0,2.6391535E1,8.925232E-1,1.4857486E1,5.387606E0,-8.584497E0,-2.2320286E1,-6.49976E0,9.2433494E-1,-1.0661001E1,1.3666731E1,-5.776282E0,-1.693622E0,8.537669E0,-1.1615164E1,-3.4728017E-1,8.134377E0,-4.65268E0,-2.8841743E0,3.1468582E0,-8.361043E0,2.1940699E0,3.9545898E0,1.5455994E1,-2.2632203E0,-8.520248E0,-3.5879395E0,2.90896E0],"split_indices":[48,80,78,3,4,1,70,2,0,6,8,2,48,0,1,63,4,9,70,5,5,54,0,0,0,0,2,0,0,4,5,47,55,13,9,70,8,5,5,80,6,1,2,48,3,0,0,0,0,0,0,0,0,0,0,0,0,0,0,0,0,0,0,0,0,0,0,0,0,0,0,0,0,0,0,0,0],"split_type":[0,0,0,0,0,0,0,0,0,0,0,0,0,0,0,0,0,0,0,0,0,0,0,0,0,0,0,0,0,0,0,0,0,0,0,0,0,0,0,0,0,0,0,0,0,0,0,0,0,0,0,0,0,0,0,0,0,0,0,0,0,0,0,0,0,0,0,0,0,0,0,0,0,0,0,0,0],"sum_hessian":[1.341E3,1.317E3,2.4E1,4.22E2,8.95E2,1.8E1,6E0,2.42E2,1.8E2,7.32E2,1.63E2,3E0,1.5E1,2E0,4E0,1.13E2,1.29E2,3.8E1,1.42E2,5.66E2,1.66E2,1.59E2,4E0,2E0,1E0,2E0,1.3E1,1E0,3E0,5.4E1,5.9E1,7.8E1,5.1E1,1E1,2.8E1,1.12E2,3E1,4.7E2,9.6E1,7.5E1,9.1E1,1.23E2,3.6E1,9E0,4E0,1.1E1,4.3E1,4.9E1,1E1,7.4E1,4E0,4.7E1,4E0,8E0,2E0,6E0,2.2E1,9.4E1,1.8E1,2.3E1,7E0,4.46E2,2.4E1,5E1,4.6E1,5.4E1,2.1E1,5.3E1,3.8E1,1.8E1,1.05E2,2E1,1.6E1,1E0,8E0,2E0,2E0],"tree_param":{"num_deleted":"0","num_feature":"82","num_nodes":"77","size_leaf_vector":"0"}},{"base_weights":[6.408857E-1,-6.240264E0,1.8232117E0,-1.1726076E1,9.6941395E0,1.4754604E0,4.559185E1,2.2054672E-1,-2.068867E1,-2.3973633E1,2.0668163E1,1.9750105E0,-1.9965878E1,9.160503E1,-9.539698E0,5.305137E1,-4.1856976E0,-1.4365895E1,-6.60406E1,4.3293457E0,-4.2204163E1,-1.8550049E1,2.5680246E1,2.2931006E0,-3.3339622E1,1.6247803E0,-3.14918E1,-2.7202637E1,3.055603E1,1.3502441E1,5.956299E1,-1.0527137E1,3.2918808E1,-1.0030698E1,-5.5046284E1,-9.2213936E1,-3.7271118E0,2.596045E1,-5.188965E0,-4.6454414E1,-6.2261963E0,-2.4753235E1,3.1313477E0,3.1062956E1,-1.2828613E1,6.3252117E1,2.1250696E0,-6.92498E1,2.1421306E0,2.0129557E1,-5.5176086E0,-2.2923079E1,-6.3838135E1,-7.860962E0,-3.1029541E1,-3.3123922E0,-4.0497826E1,4.6423374E1,-9.564778E0,-2.0984526E1,6.758283E0,-1.0451099E2,-1.4358203E1,-1.104022E2,-3.1162191E1,7.2470703E0,-1.832483E1,-7.902832E-1,-7.8579917E0,3.9573814E1,5.861545E0,-1.816333E1,4.255127E0,2.3534694E0,-3.99882E1,-1.5341919E1,-7.88913E1,2.1241293E1,-1.2717773E1,5.4879556E0,-1.0100789E1,-6.9051105E-1,-3.3970314E1],"categories":[],"categories_nodes":[],"categories_segments":[],"categories_sizes":[],"default_left":[1,1,1,1,1,1,1,1,1,1,1,1,1,0,1,1,1,1,1,1,1,1,1,1,1,1,1,1,0,0,0,1,1,1,1,1,1,0,1,0,0,0,0,1,1,0,1,1,1,0,1,1,0,0,0,0,0,0,0,0,0,0,0,0,0,0,0,0,0,0,0,0,0,0,0,0,0,0,0,0,0,0,0],"id":25,"left_children":[1,3,5,7,9,11,13,15,17,19,21,23,25,-1,27,29,31,33,35,37,39,41,43,45,47,49,51,53,-1,-1,-1,55,57,59,61,63,65,-1,67,-1,-1,-1,-1,69,71,-1,73,75,77,-1,79,81,-1,-1,-1,-1,-1,-1,-1,-1,-1,-1,-1,-1,-1,-1,-1,-1,-1,-1,-1,-1,-1,-1,-1,-1,-1,-1,-1,-1,-1,-1,-1],"loss_changes":[1.092957E4,1.7334062E4,1.7375541E4,1.5744254E4,1.9338508E4,1.2228577E4,2.370488E4,1.5120328E4,2.3138266E4,6.8904336E3,8.1424004E3,1.2579039E4,6.521325E3,0E0,4.3722466E3,4.8339258E2,1.44643E4,1.267466E4,1.5965828E4,1.3700574E3,9.3408984E2,7.4997974E2,7.653367E3,1.1173861E4,1.2889903E4,1.4327502E3,3.2484668E3,5.2152832E1,0E0,0E0,0E0,1.1109861E4,5.6075312E3,1.283117E4,1.2587777E4,4.3326016E3,7.735934E2,0E0,5.249095E1,0E0,0E0,0E0,0E0,6.41709E3,5.329718E2,0E0,1.0693875E4,1.388418E3,1.9730122E3,0E0,4.589566E2,3.660668E3,0E0,0E0,0E0,0E0,0E0,0E0,0E0,0E0,0E0,0E0,0E0,0E0,0E0,0E0,0E0,0E0,0E0,0E0,0E0,0E0,0E0,0E0,0E0,0E0,0E0,0E0,0E0,0E0,0E0,0E0,0E0],"parents":[2147483647,0,0,1,1,2,2,3,3,4,4,5,5,6,6,7,7,8,8,9,9,10,10,11,11,12,12,14,14,15,15,16,16,17,17,18,18,19,19,20,20,21,21,22,22,23,23,24,24,25,25,26,26,27,27,31,31,32,32,33,33,34,34,35,35,36,36,38,38,43,43,44,44,46,46,47,47,48,48,50,50,51,51],"right_children":[2,4,6,8,10,12,14,16,18,20,22,24,26,-1,28,30,32,34,36,38,40,42,44,46,48,50,52,54,-1,-1,-1,56,58,60,62,64,66,-1,68,-1,-1,-1,-1,70,72,-1,74,76,78,-1,80,82,-1,-1,-1,-1,-1,-1,-1,-1,-1,-1,-1,-1,-1,-1,-1,-1,-1,-1,-1,-1,-1,-1,-1,-1,-1,-1,-1,-1,-1,-1,-1],"split_conditions":[6.524E3,4.5E0,3.21E3,6.35E2,3E1,9.8735E3,2.0225E3,4.556E3,6.975E2,5.5E0,4.646E3,1.415E3,3.35E3,2.7481508E1,4.5E0,6.7245E3,4.0025E3,2.9125E3,5.581E3,5.5575E3,2.5E0,4.5E0,1.2E1,6.5365E3,5.95E1,4.9245E3,5E0,6.739E3,9.166809E0,4.0507326E0,1.7868896E1,3.5925E3,2.5E1,3.435E2,5.7075E3,9.5E0,2.09E2,7.788135E0,7.3E2,-1.3936325E1,-1.867859E0,-7.4259706E0,9.394043E-1,6.29E3,4.8675E3,1.8975636E1,3.1175E3,1.85E1,6.742E3,6.0388675E0,5.502E3,1.5E0,-1.9151442E1,-2.3582888E0,-9.308863E0,-9.9371773E-1,-1.2149348E1,1.3927012E1,-2.8694336E0,-6.295358E0,2.0274851E0,-3.1353296E1,-4.3074613E0,-3.3120663E1,-9.348658E0,2.1741211E0,-5.497449E0,-2.3708497E-1,-2.3573976E0,1.1872145E1,1.7584636E0,-5.4489994E0,1.2765381E0,7.0604086E-1,-1.1996461E1,-4.602576E0,-2.3667389E1,6.3723884E0,-3.8153322E0,1.6463867E0,-3.030237E0,-2.0715332E-1,-1.0191094E1],"split_indices":[2,72,54,4,1,9,19,2,53,72,10,4,19,0,0,5,19,54,3,2,0,0,72,2,1,10,78,2,0,0,0,19,70,63,3,80,1,0,4,0,0,0,0,3,10,0,54,1,5,0,3,72,0,0,0,0,0,0,0,0,0,0,0,0,0,0,0,0,0,0,0,0,0,0,0,0,0,0,0,0,0,0,0],"split_type":[0,0,0,0,0,0,0,0,0,0,0,0,0,0,0,0,0,0,0,0,0,0,0,0,0,0,0,0,0,0,0,0,0,0,0,0,0,0,0,0,0,0,0,0,0,0,0,0,0,0,0,0,0,0,0,0,0,0,0,0,0,0,0,0,0,0,0,0,0,0,0,0,0,0,0,0,0,0,0,0,0,0,0],"sum_hessian":[1.341E3,1.96E2,1.145E3,1.46E2,5E1,1.137E3,8E0,6.3E1,8.3E1,1.2E1,3.8E1,1.112E3,2.5E1,4E0,4E0,4E0,5.9E1,7.4E1,9E0,5E0,7E0,4E0,3.4E1,1.103E3,9E0,9E0,1.6E1,3E0,1E0,1E0,3E0,5.1E1,8E0,6.8E1,6E0,6E0,3E0,1E0,4E0,6E0,1E0,3E0,1E0,3E1,4E0,2E0,1.101E3,4E0,5E0,2E0,7E0,1.4E1,2E0,1E0,2E0,4.2E1,9E0,6E0,2E0,4.1E1,2.7E1,2E0,4E0,4E0,2E0,2E0,1E0,2E0,2E0,2.2E1,8E0,3E0,1E0,1.096E3,5E0,1E0,3E0,2E0,3E0,2E0,5E0,5E0,9E0],"tree_param":{"num_deleted":"0","num_feature":"82","num_nodes":"83","size_leaf_vector":"0"}},{"base_weights":[3.8045096E-1,9.5474935E-1,-1.0916992E1,1.5052092E0,-1.4161301E1,4.332929E0,-2.4112152E1,-8.4794235E0,2.4801464E0,-1.045929E0,-9.92369E1,-6.9726458E0,3.2743515E1,-4.149349E1,1.2659871E1,-5.2046714E0,-2.4927896E1,-2.8648326E-2,7.4978123E0,2.0540668E1,-3.8392967E1,-1.4460017E2,-4.0405212E1,8.759766E0,-2.4931618E1,-2.4709229E1,5.2688477E1,-1.2189372E1,-5.5383713E1,1.9266602E1,-3.000708E1,-8.2600206E-1,-1.7081612E1,-4.1068043E1,-4.2246366E0,3.0073023E0,-1.2012475E1,-1.7340395E1,1.0937387E1,4.2032585E1,-8.03595E0,-1.0018164E1,-7.9285484E1,-1.0782918E1,2.2321808E1,-3.251975E1,6.1433105E0,-3.806311E1,9.992676E-1,6.991785E1,2.2286987E1,6.53715E0,-3.723181E1,-6.5914E1,-1.9034277E1,3.7540527E1,7.7213135E0,1.132087E1,-6.0149474E0,-3.3751953E1,-5.595047E0,-5.5695263E1,-2.2034018E1,3.8679607E0,-1.5307373E1,5.6005845E0,-9.414511E0,8.126304E0,-2.1671955E1,-3.378537E1,1.5605515E1,-1.6233028E1,1.3510251E1,-9.230388E0,5.0629227E1,1.8118408E0,-3.818327E1,3.3791016E1,-1.8640408E1,-8.578599E1,-2.339148E1,-1.2969727E1,7.556152E-2,-4.3489585E0,3.193689E1,-3.6161804E1,-1.6916504E0,-1.2368978E0,1.0733398E1,-7.3047554E1,-3.338501E1,-2.0511067E0,-2.967269E1,1.43126955E1,-2.4482422E0],"categories":[],"categories_nodes":[],"categories_segments":[],"categories_sizes":[],"default_left":[1,1,1,1,1,1,1,1,1,1,1,1,1,1,1,1,1,1,1,1,1,0,0,1,1,1,1,1,1,1,0,1,1,1,1,1,1,1,1,1,1,1,1,1,1,1,0,0,0,0,0,1,0,1,1,0,1,0,0,0,0,0,0,0,0,0,0,0,0,0,0,0,0,0,0,0,0,0,0,0,0,0,0,0,0,0,0,0,0,0,0,0,0,0,0],"id":26,"left_children":[1,3,5,7,9,11,13,15,17,19,21,23,25,27,29,31,33,35,37,39,41,-1,-1,43,45,47,49,51,53,55,-1,57,59,61,63,65,67,69,71,73,75,77,79,81,83,85,-1,-1,-1,-1,-1,87,-1,89,91,-1,93,-1,-1,-1,-1,-1,-1,-1,-1,-1,-1,-1,-1,-1,-1,-1,-1,-1,-1,-1,-1,-1,-1,-1,-1,-1,-1,-1,-1,-1,-1,-1,-1,-1,-1,-1,-1,-1,-1],"loss_changes":[8.717458E3,1.0655272E4,1.3184109E4,1.2033268E4,5.0107117E4,1.0185447E4,2.2895447E4,5.795373E3,1.4162047E4,3.3036438E4,1.0170191E4,6.7167686E3,1.1614927E4,9.093887E3,3.9608027E3,4.822373E3,5.8412676E3,2.7359236E4,3.222699E4,1.6306095E4,1.661046E4,0E0,0E0,3.686197E3,2.7935854E3,1.0679601E3,2.108332E3,4.46401E3,4.8696914E3,2.0308931E3,0E0,4.417127E3,4.5982803E3,1.5569609E3,8.664014E2,1.9380688E4,2.9744693E4,2.5449787E4,2.3288215E4,7.07767E3,3.631796E3,4.4072124E3,1.733789E2,1.4345251E2,2.190425E3,9.493252E2,0E0,0E0,0E0,0E0,0E0,2.0900714E2,0E0,3.458789E2,8.4250806E2,0E0,5.7129236E2,0E0,0E0,0E0,0E0,0E0,0E0,0E0,0E0,0E0,0E0,0E0,0E0,0E0,0E0,0E0,0E0,0E0,0E0,0E0,0E0,0E0,0E0,0E0,0E0,0E0,0E0,0E0,0E0,0E0,0E0,0E0,0E0,0E0,0E0,0E0,0E0,0E0,0E0],"parents":[2147483647,0,0,1,1,2,2,3,3,4,4,5,5,6,6,7,7,8,8,9,9,10,10,11,11,12,12,13,13,14,14,15,15,16,16,17,17,18,18,19,19,20,20,23,23,24,24,25,25,26,26,27,27,28,28,29,29,31,31,32,32,33,33,34,34,35,35,36,36,37,37,38,38,39,39,40,40,41,41,42,42,43,43,44,44,45,45,51,51,53,53,54,54,56,56],"right_children":[2,4,6,8,10,12,14,16,18,20,22,24,26,28,30,32,34,36,38,40,42,-1,-1,44,46,48,50,52,54,56,-1,58,60,62,64,66,68,70,72,74,76,78,80,82,84,86,-1,-1,-1,-1,-1,88,-1,90,92,-1,94,-1,-1,-1,-1,-1,-1,-1,-1,-1,-1,-1,-1,-1,-1,-1,-1,-1,-1,-1,-1,-1,-1,-1,-1,-1,-1,-1,-1,-1,-1,-1,-1,-1,-1,-1,-1,-1,-1],"split_conditions":[9.5E0,4.025E2,4.9055E3,4.4675E3,5.025E2,7.15E2,5.198E3,4.4475E3,6.95E2,9.65E1,1.2E2,1.7E2,2E0,4.667E3,6.95E3,4.2865E3,4.04E2,6.55E2,6.113E3,3.5E0,7.2155E3,-4.3380054E1,-1.2121564E1,6.05E2,8.775E2,1.5E0,7.002E3,1.5E0,6.888E3,6.761E3,-9.002125E0,4.9705E3,3.45E1,5.306E3,6.8015E3,6.618E3,6.9875E3,4.5E0,4.691E3,4.3485E3,1.5205E3,1.509E3,4E0,6.9815E3,3.43E2,6.8565E3,1.8429933E0,-1.1418934E1,2.9978028E-1,2.0975355E1,6.6860967E0,6.9915E3,-1.1169544E1,1.5195E3,6.918E3,1.1262158E1,7.475E2,3.3962612E0,-1.8044842E0,-1.01255865E1,-1.6785141E0,-1.670858E1,-6.6102057E0,1.1603882E0,-4.592212E0,1.6801754E0,-2.8243532E0,2.4378912E0,-6.501587E0,-1.0135612E1,4.6816545E0,-4.869909E0,4.0530753E0,-2.7691164E0,1.5188768E1,5.435523E-1,-1.1454981E1,1.0137305E1,-5.5921226E0,-2.5735798E1,-7.017444E0,-3.890918E0,2.2668459E-2,-1.3046876E0,9.581067E0,-1.0848541E1,-5.0749516E-1,-3.7106937E-1,3.2200196E0,-2.1914267E1,-1.0015503E1,-6.15332E-1,-8.901807E0,4.293809E0,-7.344727E-1],"split_indices":[64,33,10,10,14,4,7,10,4,1,55,55,73,7,5,7,63,4,2,80,9,0,0,4,55,0,2,0,5,5,0,8,1,3,5,3,9,72,3,10,6,6,0,2,63,5,0,0,0,0,0,2,0,6,5,0,13,0,0,0,0,0,0,0,0,0,0,0,0,0,0,0,0,0,0,0,0,0,0,0,0,0,0,0,0,0,0,0,0,0,0,0,0,0,0],"split_type":[0,0,0,0,0,0,0,0,0,0,0,0,0,0,0,0,0,0,0,0,0,0,0,0,0,0,0,0,0,0,0,0,0,0,0,0,0,0,0,0,0,0,0,0,0,0,0,0,0,0,0,0,0,0,0,0,0,0,0,0,0,0,0,0,0,0,0,0,0,0,0,0,0,0,0,0,0,0,0,0,0,0,0,0,0,0,0,0,0,0,0,0,0,0,0],"sum_hessian":[1.341E3,1.277E3,6.4E1,1.233E3,4.4E1,3E1,3.4E1,1.09E2,1.124E3,3.9E1,5E0,2.2E1,8E0,2.3E1,1.1E1,9.2E1,1.7E1,7.5E2,3.74E2,2.5E1,1.4E1,2E0,3E0,1.2E1,1E1,2E0,6E0,8E0,1.5E1,1E1,1E0,6.8E1,2.4E1,9E0,8E0,5.99E2,1.51E2,4.5E1,3.29E2,1.4E1,1.1E1,9E0,5E0,5E0,7E0,8E0,2E0,1E0,1E0,3E0,3E0,5E0,3E0,1.1E1,4E0,3E0,7E0,2E1,4.8E1,9E0,1.5E1,4E0,5E0,5E0,3E0,4.96E2,1.03E2,4.9E1,1.02E2,3E1,1.5E1,2.8E1,3.01E2,2E0,1.2E1,9E0,2E0,1E0,8E0,4E0,1E0,4E0,1E0,2E0,5E0,7E0,1E0,2E0,3E0,8E0,3E0,2E0,2E0,4E0,3E0],"tree_param":{"num_deleted":"0","num_feature":"82","num_nodes":"95","size_leaf_vector":"0"}},{"base_weights":[1.4476193E-1,-4.2845584E-2,3.5930317E1,-1.3957785E-1,6.454736E1,4.6843407E1,5.765055E0,-2.92269E-1,4.0534718E1,-4.4113892E-1,3.9276268E1,1.89281E1,6.348059E1,-3.056348E-1,-9.0059814E1,-2.5808105E0,5.0385742E1,6.255421E-2,-1.6213484E1],"categories":[],"categories_nodes":[],"categories_segments":[],"categories_sizes":[],"default_left":[1,1,1,1,0,0,0,1,1,1,1,0,0,1,0,0,0,0,0],"id":27,"left_children":[1,3,5,7,-1,-1,-1,9,11,13,15,-1,-1,17,-1,-1,-1,-1,-1],"loss_changes":[9.011242E3,8.356281E3,2.0343193E3,8.303003E3,0E0,0E0,0E0,7.85767E3,1.2773467E3,1.6087166E4,2.4550864E3,0E0,0E0,7.7675225E3,0E0,0E0,0E0,0E0,0E0],"parents":[2147483647,0,0,1,1,2,2,3,3,7,7,8,8,9,9,10,10,13,13],"right_children":[2,4,6,8,-1,-1,-1,10,12,14,16,-1,-1,18,-1,-1,-1,-1,-1],"split_conditions":[1.45E2,1.5E2,5.025E2,4.85E2,1.936421E1,1.4053022E1,1.7295166E0,7.0075E3,3E1,7.0025E3,3.5E0,5.6784306E0,1.9044178E1,7.1215E3,-2.7017946E1,-7.742432E-1,1.5115724E1,1.8766263E-2,-4.864045E0],"split_indices":[60,29,60,58,0,0,0,19,1,19,1,0,0,3,0,0,0,0,0],"split_type":[0,0,0,0,0,0,0,0,0,0,0,0,0,0,0,0,0,0,0],"sum_hessian":[1.341E3,1.335E3,6E0,1.334E3,1E0,4E0,2E0,1.33E3,4E0,1.326E3,4E0,3E0,1E0,1.325E3,1E0,1E0,3E0,1.296E3,2.9E1],"tree_param":{"num_deleted":"0","num_feature":"82","num_nodes":"19","size_leaf_vector":"0"}},{"base_weights":[1.3285689E-1,-1.3192314E-1,2.2084747E1,2.1303158E1,-3.7670174E-1,3.6138237E1,3.513977E0,-3.5428467E0,4.3486267E1,-4.8618585E-1,4.7593426E1,4.4835205E1,3.799235E0,1.319397E1,-4.9328127E0,1.4446655E1,-1.722588E1,6.992417E1,-4.3267822E-1,-6.255303E-1,3.6035694E1,5.8583252E1,1.2806885E1,5.3817528E1,1.4919597E1,9.384277E0,-3.6854248E0,-1.0846436E1,2.6250813E0,-2.1937256E0,2.0724691E1,-2.5022787E1,-3.6870117E0,6.338623E0,8.42359E1,-1.2195638E1,1.74281E1,-7.118529E-1,5.605591E1,9.38641E1,-3.3804607E1,8.029785E-1,2.1576416E1,-1.3267822E1,-3.001831E0,5.072754E0,-1.1351318E0,-4.9159613E0,5.251095E-1,-4.6576416E1,-4.130493E0],"categories":[],"categories_nodes":[],"categories_segments":[],"categories_sizes":[],"default_left":[1,1,1,1,1,1,1,1,1,1,1,1,1,0,1,1,1,1,1,1,1,0,0,0,1,0,0,1,1,0,0,0,0,0,0,0,0,1,0,0,1,0,0,0,0,0,0,0,0,0,0],"id":28,"left_children":[1,3,5,7,9,11,13,15,17,19,21,23,25,-1,27,29,31,33,35,37,39,-1,-1,-1,41,-1,-1,43,45,-1,-1,-1,-1,-1,-1,-1,-1,47,-1,-1,49,-1,-1,-1,-1,-1,-1,-1,-1,-1,-1],"loss_changes":[7.803184E3,6.9705933E3,4.0487573E3,8.42149E3,6.9189717E3,2.3609219E3,7.192023E2,2.218064E3,9.319254E3,6.69438E3,3.96625E2,1.0780469E3,1.5999147E2,0E0,2.5194548E2,4.6333997E2,4.3554712E2,4.0161543E3,1.0529292E3,6.4349116E3,2.3366805E4,0E0,0E0,0E0,2.645899E2,0E0,0E0,1.7156677E1,3.3369556E1,0E0,0E0,0E0,0E0,0E0,0E0,0E0,0E0,6.7942046E3,0E0,0E0,9.44593E2,0E0,0E0,0E0,0E0,0E0,0E0,0E0,0E0,0E0,0E0],"parents":[2147483647,0,0,1,1,2,2,3,3,4,4,5,5,6,6,7,7,8,8,9,9,10,10,11,11,12,12,14,14,15,15,16,16,17,17,18,18,19,19,20,20,24,24,27,27,28,28,37,37,40,40],"right_children":[2,4,6,8,10,12,14,16,18,20,22,24,26,-1,28,30,32,34,36,38,40,-1,-1,-1,42,-1,-1,44,46,-1,-1,-1,-1,-1,-1,-1,-1,48,-1,-1,50,-1,-1,-1,-1,-1,-1,-1,-1,-1,-1],"split_conditions":[3.5E2,4.5E0,3.5E0,6.6925E3,2.5E2,9.3E2,6.7835E3,3.5E0,7.2455E3,8.75E1,7.4E1,8.45E1,4.05E1,3.9581912E0,4.5E0,2.5E0,5.5995E3,1.5E0,6E0,2.5E2,4.65E1,1.7574976E1,3.8420656E0,1.614526E1,2E0,2.8152833E0,-1.1056275E0,1.5E0,3.45E1,-6.581177E-1,6.2174077E0,-7.5068364E0,-1.1061035E0,1.901587E0,2.5270771E1,-3.6586914E0,5.2284303E0,4.6405E3,1.6816772E1,2.8159231E1,4.75E1,2.4089356E-1,6.472925E0,-3.980347E0,-9.0054935E-1,1.5218263E0,-3.4053957E-1,-1.4747884E0,1.5753287E-1,-1.3972925E1,-1.239148E0],"split_indices":[22,1,80,5,23,4,5,1,9,52,1,1,1,0,0,1,2,0,0,41,1,0,0,0,0,0,0,0,1,0,0,0,0,0,0,0,0,10,0,0,1,0,0,0,0,0,0,0,0,0,0],"split_type":[0,0,0,0,0,0,0,0,0,0,0,0,0,0,0,0,0,0,0,0,0,0,0,0,0,0,0,0,0,0,0,0,0,0,0,0,0,0,0,0,0,0,0,0,0,0,0,0,0,0,0],"sum_hessian":[1.341E3,1.326E3,1.5E1,1.4E1,1.312E3,8E0,7E0,7E0,7E0,1.31E3,2E0,6E0,2E0,3E0,4E0,3E0,4E0,4E0,3E0,1.306E3,4E0,1E0,1E0,4E0,2E0,1E0,1E0,2E0,2E0,1E0,2E0,2E0,2E0,1E0,3E0,2E0,1E0,1.305E3,1E0,2E0,2E0,1E0,1E0,1E0,1E0,1E0,1E0,2.96E2,1.009E3,1E0,1E0],"tree_param":{"num_deleted":"0","num_feature":"82","num_nodes":"51","size_leaf_vector":"0"}},{"base_weights":[1.678596E-1,6.1632115E-1,-1.0540193E1,-1.2782887E-1,9.37056E0,-1.3814797E1,3.384607E1,3.237338E-1,-2.7951622E1,4.142825E0,3.9066715E1,5.079956E0,-2.3411585E1,1.5249795E0,-7.6788354E0,1.1365015E1,-6.44731E1,-6.213151E1,6.4331803E0,7.283431E1,1.48994875E1,-1.023741E1,4.6952587E1,-5.1805664E1,-1.7898853E1,5.2116406E-1,1.4920695E1,-4.690959E1,-3.0746982E0,3.556414E1,-3.3824707E1,-8.430591E1,-1.36474E1,-4.1745553E0,1.9051908E1,2.4448914E1,-1.55321455E1,-2.2914818E1,2.7184814E1,-7.3717895E0,-3.54118E1,7.845946E-1,-1.2460547E2,-4.9374762E-1,3.4826225E1,-2.3187899E1,-8.258109E1,-2.3733921E1,2.1643374E0,5.198871E1,1.0248535E1,-4.1486164E1,-5.420166E0,-2.7295816E1,-1.0165078E2,3.4622772E0,-3.6803658E1,2.6494637E1,-8.701036E0,2.681958E1,3.927124E0,-8.148751E0,-3.9004345E1,1.5021973E0,3.5244953E1,5.336163E-1,-1.92966E1,-4.682729E1,-1.2347754E1],"categories":[],"categories_nodes":[],"categories_segments":[],"categories_sizes":[],"default_left":[1,1,1,1,1,1,0,1,1,1,1,1,1,1,1,1,1,0,1,0,1,1,0,0,1,1,1,1,1,1,1,1,0,1,1,1,0,1,1,1,1,0,0,0,0,0,0,0,0,0,0,0,0,0,0,0,0,0,0,0,0,0,0,0,0,0,0,0,0],"id":29,"left_children":[1,3,5,7,9,11,-1,13,15,17,19,21,23,25,27,29,31,-1,33,-1,35,37,-1,-1,39,41,43,45,47,49,51,53,-1,55,57,59,-1,61,63,65,67,-1,-1,-1,-1,-1,-1,-1,-1,-1,-1,-1,-1,-1,-1,-1,-1,-1,-1,-1,-1,-1,-1,-1,-1,-1,-1,-1,-1],"loss_changes":[6.4509814E3,8.398346E3,8.31634E3,1.4947865E4,1.5517759E4,9.366708E3,0E0,1.1268594E4,2.8014867E4,1.3605587E4,1.1155846E4,1.2025484E4,4.3947227E3,1.369454E4,2.7491207E4,1.2138464E4,8.929609E3,0E0,1.1457303E4,0E0,3.2857905E3,7.2647695E3,0E0,0E0,5.269748E3,3.1378863E4,2.1802316E4,1.1624133E4,1.4987717E4,2.3777773E3,6.4561865E2,4.1471875E3,0E0,1.1839024E4,8.28628E3,2.8387842E2,0E0,2.2955322E3,7.750769E2,1.8957064E3,2.3179492E3,0E0,0E0,0E0,0E0,0E0,0E0,0E0,0E0,0E0,0E0,0E0,0E0,0E0,0E0,0E0,0E0,0E0,0E0,0E0,0E0,0E0,0E0,0E0,0E0,0E0,0E0,0E0,0E0],"parents":[2147483647,0,0,1,1,2,2,3,3,4,4,5,5,7,7,8,8,9,9,10,10,11,11,12,12,13,13,14,14,15,15,16,16,18,18,20,20,21,21,24,24,25,25,26,26,27,27,28,28,29,29,30,30,31,31,33,33,34,34,35,35,37,37,38,38,39,39,40,40],"right_children":[2,4,6,8,10,12,-1,14,16,18,20,22,24,26,28,30,32,-1,34,-1,36,38,-1,-1,40,42,44,46,48,50,52,54,-1,56,58,60,-1,62,64,66,68,-1,-1,-1,-1,-1,-1,-1,-1,-1,-1,-1,-1,-1,-1,-1,-1,-1,-1,-1,-1,-1,-1,-1,-1,-1,-1,-1,-1],"split_conditions":[1.35E1,3E0,1.45E1,6.775E2,1.5E0,6.7275E3,1.0153821E1,8.5E0,3.4925E3,5E-1,4.822E3,1.725E2,5.3095E3,7.0275E3,2.75E1,3.5E0,1.5185E3,-1.8639454E1,3.195E2,2.1850294E1,6.1975E3,6.7115E3,1.4085776E1,-1.5541699E1,5.847E3,7.0265E3,2.95E1,7.5E0,6.7115E3,9.8E1,7.0005E3,3E1,-4.09422E0,4.525E2,6.2285E3,5E0,-4.6596437E0,8.9E1,5.7E1,4.275E2,1.5135E3,2.3537838E-1,-3.738164E1,-1.4812429E-1,1.0447868E1,-6.95637E0,-2.4774328E1,-7.120177E0,6.4930123E-1,1.5596613E1,3.0745606E0,-1.2445849E1,-1.6260499E0,-8.1887455E0,-3.0495235E1,1.0386832E0,-1.1041098E1,7.9483914E0,-2.610311E0,8.045875E0,1.1781373E0,-2.4446254E0,-1.17013035E1,4.506592E-1,1.0573486E1,1.600849E-1,-5.7889805E0,-1.4048187E1,-3.7043262E0],"split_indices":[72,71,80,47,76,5,0,73,19,73,7,47,8,2,1,80,6,0,47,0,8,5,0,0,8,2,70,72,5,1,2,70,0,13,3,0,0,1,1,63,6,0,0,0,0,0,0,0,0,0,0,0,0,0,0,0,0,0,0,0,0,0,0,0,0,0,0,0,0],"split_type":[0,0,0,0,0,0,0,0,0,0,0,0,0,0,0,0,0,0,0,0,0,0,0,0,0,0,0,0,0,0,0,0,0,0,0,0,0,0,0,0,0,0,0,0,0,0,0,0,0,0,0,0,0,0,0,0,0,0,0,0,0,0,0,0,0,0,0,0,0],"sum_hessian":[1.341E3,1.288E3,5.3E1,1.188E3,1E2,5E1,3E0,1.17E3,1.8E1,8.6E1,1.4E1,1.7E1,3.3E1,1.018E3,1.52E2,9E0,9E0,2E0,8.4E1,5E0,9E0,1.3E1,4E0,4E0,2.9E1,9.48E2,7E1,1.5E1,1.37E2,6E0,3E0,6E0,3E0,4.6E1,3.8E1,7E0,2E0,1E1,3E0,1.9E1,1E1,9.47E2,1E0,4E1,3E1,1E1,5E0,2.7E1,1.1E2,3E0,3E0,2E0,1E0,2E0,4E0,3.8E1,8E0,3E1,8E0,6E0,1E0,6E0,4E0,1E0,2E0,1.2E1,7E0,6E0,4E0],"tree_param":{"num_deleted":"0","num_feature":"82","num_nodes":"69","size_leaf_vector":"0"}},{"base_weights":[2.964453E-2,-1.2643933E0,3.8469691E0,-1.5084422E0,6.0063904E1,2.1092983E1,-6.2191623E-1,-9.139299E0,1.5510029E-1,7.3116455E1,1.0453125E1,5.5324645E0,3.8371975E1,1.2222881E0,-4.887788E1,-1.0264102E1,6.0270508E1,-3.131407E-1,6.388806E1,3.5178085E1,-1.5331119E1,4.272181E1,-3.8447876E0,-8.2970566E-1,5.3015503E1,5.4978843E0,-6.3159058E1,-1.6400033E0,-1.8214193E1,-5.815505E-1,5.4386536E1,7.978013E1,-7.786133E0,-1.7311157E1,4.8622616E1,7.7859373E0,-3.074822E1,2.7248764E1,5.845895E1,1.5804037E0,-1.0060181E1,-6.329048E0,1.484766E1,8.008385E1,-7.607971E0,1.8763672E1,-1.0516846E1,-7.038529E1,-6.2877197E0,-7.115133E0,2.474995E1,-3.551377E1,-7.4607563E0,-1.9316865E0,9.536464E0,7.493441E1,-3.62854E0,2.050586E1,-3.6752117E1,4.0011597E0,6.1608936E1,2.5594433E1,-8.352132E0,1.20947264E-1,-4.3107983E1,6.151758E1,1.5511335E1,4.145101E0,6.716583E1,-4.264178E0,-5.2255615E1,-1.2088092E1,2.8590265E1,9.746698E1,4.267975E1,-1.807666E1,1.1899048E1,-7.8825684E0,-7.948865E1],"categories":[],"categories_nodes":[],"categories_segments":[],"categories_sizes":[],"default_left":[1,1,1,1,1,1,1,1,1,0,0,1,1,1,1,1,0,1,1,1,1,1,1,1,1,1,1,1,1,1,1,0,0,1,1,1,1,1,1,0,0,1,1,1,1,0,0,1,0,0,0,0,0,0,0,0,0,0,0,0,0,0,0,0,0,0,0,0,0,0,0,0,0,0,0,0,0,0,0],"id":30,"left_children":[1,3,5,7,9,11,13,15,17,-1,-1,19,21,23,25,27,-1,29,31,33,35,37,39,41,43,45,47,49,51,53,55,-1,-1,57,59,61,63,65,67,-1,-1,69,71,73,75,-1,-1,77,-1,-1,-1,-1,-1,-1,-1,-1,-1,-1,-1,-1,-1,-1,-1,-1,-1,-1,-1,-1,-1,-1,-1,-1,-1,-1,-1,-1,-1,-1,-1],"loss_changes":[6.634025E3,1.5102602E4,2.6217074E4,1.2695673E4,1.8258936E3,1.8608611E4,2.4177082E4,1.4593575E4,2.4550447E4,0E0,0E0,2.4042848E4,6.224242E3,2.7889176E4,8.11274E3,1.210567E4,0E0,1.2026765E4,7.4554844E3,1.2132805E4,8.436559E3,5.7121094E3,1.5077794E2,2.1906418E4,1.7019047E4,8.3467865E2,2.8451582E3,1.2602104E4,1.6849795E4,1.1138227E4,5.040247E3,0E0,0E0,3.6944302E3,7.286586E3,3.0877156E3,5.346711E3,5.8836523E3,6.342254E3,0E0,0E0,1.760567E4,2.4776652E4,3.9153516E2,1.0319468E3,0E0,0E0,3.3563164E3,0E0,0E0,0E0,0E0,0E0,0E0,0E0,0E0,0E0,0E0,0E0,0E0,0E0,0E0,0E0,0E0,0E0,0E0,0E0,0E0,0E0,0E0,0E0,0E0,0E0,0E0,0E0,0E0,0E0,0E0,0E0],"parents":[2147483647,0,0,1,1,2,2,3,3,4,4,5,5,6,6,7,7,8,8,11,11,12,12,13,13,14,14,15,15,17,17,18,18,19,19,20,20,21,21,22,22,23,23,24,24,25,25,26,26,27,27,28,28,29,29,30,30,33,33,34,34,35,35,36,36,37,37,38,38,41,41,42,42,43,43,44,44,47,47],"right_children":[2,4,6,8,10,12,14,16,18,-1,-1,20,22,24,26,28,-1,30,32,34,36,38,40,42,44,46,48,50,52,54,56,-1,-1,58,60,62,64,66,68,-1,-1,70,72,74,76,-1,-1,78,-1,-1,-1,-1,-1,-1,-1,-1,-1,-1,-1,-1,-1,-1,-1,-1,-1,-1,-1,-1,-1,-1,-1,-1,-1,-1,-1,-1,-1,-1,-1],"split_conditions":[4.0025E3,1.5E0,4.1875E3,5.5E0,3.4E1,1.5175E3,7.65E2,3.1125E3,1.3525E3,2.1934937E1,3.1359377E0,1.5E0,5E0,5.9E2,4.585E3,4.599E3,1.8081154E1,8.75E1,6.7425E3,4.0075E3,2.5E0,4.5E0,1.5E0,5E1,5.1115E3,2.85E1,6.7615E3,7.4005E3,7.372E3,7.0125E3,4.7E1,2.393404E1,-2.33584E0,6.694E3,1.5E0,5.6475E3,3.5E0,9.5E0,5.5E0,4.7412112E-1,-3.0180542E0,5.1E2,6.9695E3,5.4875E3,6.6815E3,5.6291018E0,-3.1550539E0,6E0,-1.886316E0,-2.1345398E0,7.4249854E0,-1.0654132E1,-2.238227E0,-5.79506E-1,2.8609393E0,2.2480324E1,-1.088562E0,6.151758E0,-1.1025636E1,1.2003479E0,1.8482681E1,7.67833E0,-2.5056396E0,3.6284182E-2,-1.2932395E1,1.8455275E1,4.653401E0,1.2435304E0,2.014975E1,-1.2792534E0,-1.5676685E1,-3.6264277E0,8.57708E0,2.9240095E1,1.28039255E1,-5.4229984E0,3.5697145E0,-2.3647707E0,-2.3846596E1],"split_indices":[19,74,19,65,1,6,53,54,50,0,0,72,71,53,10,7,0,52,2,19,73,73,0,50,10,1,3,9,9,2,1,0,0,2,0,8,80,1,65,0,0,14,9,3,2,0,0,1,0,0,0,0,0,0,0,0,0,0,0,0,0,0,0,0,0,0,0,0,0,0,0,0,0,0,0,0,0,0,0],"split_type":[0,0,0,0,0,0,0,0,0,0,0,0,0,0,0,0,0,0,0,0,0,0,0,0,0,0,0,0,0,0,0,0,0,0,0,0,0,0,0,0,0,0,0,0,0,0,0,0,0,0,0,0,0,0,0,0,0,0,0,0,0,0,0,0,0,0,0,0,0,0,0,0,0,0,0,0,0,0,0],"sum_hessian":[1.341E3,1.002E3,3.39E2,9.99E2,3E0,6.9E1,2.7E2,1.78E2,8.21E2,2E0,1E0,3.7E1,3.2E1,2.61E2,9E0,1.76E2,2E0,8.16E2,5E0,1.5E1,2.2E1,2.9E1,3E0,2.52E2,9E0,2E0,7E0,8.5E1,9.1E1,8.13E2,3E0,4E0,1E0,3E0,1.2E1,9E0,1.3E1,1.6E1,1.3E1,2E0,1E0,1.87E2,6.5E1,6E0,3E0,1E0,1E0,6E0,1E0,7.1E1,1.4E1,3.4E1,5.7E1,7.18E2,9.5E1,2E0,1E0,1E0,2E0,3E0,9E0,4E0,5E0,4E0,9E0,3E0,1.3E1,2E0,1.1E1,1.8E2,7E0,2.2E1,4.3E1,3E0,3E0,2E0,1E0,1E0,5E0],"tree_param":{"num_deleted":"0","num_feature":"82","num_nodes":"79","size_leaf_vector":"0"}},{"base_weights":[1.1948682E-1,-3.8913217E-1,9.508779E0,1.061903E-1,-1.5672485E1,-1.082455E0,4.1969166E1,-3.2908934E-1,3.1312056E1,-2.770863E1,-9.1103E-1,1.3262833E1,-2.1899126E1,1.8457706E1,9.4705124E1,7.59049E-1,-8.85834E0,8.27312E1,1.43842945E1,-3.1185558E1,2.2653442E1,4.4173218E1,-1.2125153E1,2.897019E1,-1.1922551E1,-4.006781E1,-8.791282E-2,-1.795874E0,6.4477234E1,1.1040454E2,1.5953735E1,2.4101756E0,-3.8888705E0,-2.8385723E1,-1.4236976E0,4.0221573E1,-2.6769003E1,-7.2989197E0,-4.2607525E1,5.786499E0,5.503996E1,1.8064306E1,-2.3693665E1,6.9395075E0,4.307902E1,8.795654E0,-1.9017578E1,7.928711E-1,-6.059726E1,3.7940918E1,-7.684888E0,1.8014038E1,-2.5208593E1,-1.6240234E0,7.563865E0,-4.048355E1,-1.6977785E0,9.0230055E0,-4.599833E1,2.3896858E1,-6.4710593E0,6.201935E1,1.8986124E1,-3.8055275E1,1.4831177E1,1.3418375E0,-2.214746E1,-5.1427467E1,-1.6446142E1,2.4684143E1,-4.2075195E0,-3.6401978E1,-9.416016E0,-1.348763E1,1.4702637E1,8.489838E1,1.9706081E1,1.6312338E1,-6.8771973E0,-2.2637625E1,-7.9281006E0,1.3210693E1,-1.1889241E1,1.0065918E0,-1.1553606E1,2.1673437E1,-1.4147949E-1,-6.3096924E0,-2.8355896E1],"categories":[],"categories_nodes":[],"categories_segments":[],"categories_sizes":[],"default_left":[1,1,1,1,1,1,1,1,1,1,1,1,1,1,1,1,1,0,1,1,0,1,1,1,1,1,1,1,0,0,0,1,1,1,1,1,1,1,1,0,0,1,1,1,1,1,1,1,0,0,1,1,1,0,0,0,0,0,0,0,0,0,0,0,0,0,0,0,0,0,0,0,0,0,0,0,0,0,0,0,0,0,0,0,0,0,0,0,0],"id":31,"left_children":[1,3,5,7,9,11,13,15,17,19,21,23,25,27,29,31,33,-1,35,37,-1,39,41,43,45,47,49,51,-1,-1,-1,53,55,57,59,61,63,65,67,-1,-1,69,71,73,75,77,79,81,-1,-1,83,85,87,-1,-1,-1,-1,-1,-1,-1,-1,-1,-1,-1,-1,-1,-1,-1,-1,-1,-1,-1,-1,-1,-1,-1,-1,-1,-1,-1,-1,-1,-1,-1,-1,-1,-1,-1,-1],"loss_changes":[6.4125186E3,9.646085E3,2.376732E4,1.6785652E4,7.0815957E3,1.6117364E4,1.933025E4,1.1320269E4,1.3606957E4,4.5587793E3,1.0141633E4,1.3004467E4,8.714661E3,1.2232575E4,4.4203906E3,8.312969E3,1.9994309E4,0E0,1.5962738E4,5.418492E3,0E0,1.3500645E3,6.015964E3,5.9175957E3,2.0782231E3,1.0114213E4,3.4695166E3,5.092148E3,0E0,0E0,0E0,1.6624303E4,2.2703043E4,2.5451916E4,1.306264E4,2.988463E3,3.3814702E3,1.0561395E3,2.3846035E3,0E0,0E0,8.410383E2,1.8345757E3,1.6255103E3,1.0056279E4,5.8341455E2,2.2197095E2,9.4448615E2,0E0,0E0,3.4787866E2,4.0169617E2,1.1848584E2,0E0,0E0,0E0,0E0,0E0,0E0,0E0,0E0,0E0,0E0,0E0,0E0,0E0,0E0,0E0,0E0,0E0,0E0,0E0,0E0,0E0,0E0,0E0,0E0,0E0,0E0,0E0,0E0,0E0,0E0,0E0,0E0,0E0,0E0,0E0,0E0],"parents":[2147483647,0,0,1,1,2,2,3,3,4,4,5,5,6,6,7,7,8,8,9,9,10,10,11,11,12,12,13,13,14,14,15,15,16,16,18,18,19,19,21,21,22,22,23,23,24,24,25,25,26,26,27,27,31,31,32,32,33,33,34,34,35,35,36,36,37,37,38,38,41,41,42,42,43,43,44,44,45,45,46,46,47,47,50,50,51,51,52,52],"right_children":[2,4,6,8,10,12,14,16,18,20,22,24,26,28,30,32,34,-1,36,38,-1,40,42,44,46,48,50,52,-1,-1,-1,54,56,58,60,62,64,66,68,-1,-1,70,72,74,76,78,80,82,-1,-1,84,86,88,-1,-1,-1,-1,-1,-1,-1,-1,-1,-1,-1,-1,-1,-1,-1,-1,-1,-1,-1,-1,-1,-1,-1,-1,-1,-1,-1,-1,-1,-1,-1,-1,-1,-1,-1,-1],"split_conditions":[6.625E2,5.975E2,4.796E3,5.425E2,6.65E2,4.777E3,7.25E2,7.5E1,4.3195E3,2.5E2,5E-1,1.518E3,6.7975E3,1.5165E3,8.05E2,5.1075E3,3.475E2,2.481936E1,3.75E3,5.55E2,6.796033E0,3.45E1,4.558E3,6.4E2,6.7025E3,6E0,7.05E2,4.994E3,1.934317E1,3.3121365E1,4.786121E0,4.8085E3,5.1195E3,4.7715E3,6.9905E3,5E2,6.7E2,4.654E3,4.845E2,1.7359498E0,1.6511988E1,8.5E1,3.45E1,6.4505E3,4.3E3,5.7485E3,5.68E3,6.7605E3,-1.8179178E1,1.1382276E1,5.812E3,1.065E2,6.996E3,-4.8720706E-1,2.2691596E0,-1.2145066E1,-5.0933355E-1,2.7069018E0,-1.37994995E1,7.169058E0,-1.9413179E0,1.8605804E1,5.6958375E0,-1.1416583E1,4.449353E0,